<?xml version="1.0"?>
<opencv_storage>
<cascade>
  <stageType>BOOST</stageType>
  <featureType>HOG</featureType>
  <height>16</height>
  <width>42</width>
  <stageParams>
    <boostType>GAB</boostType>
    <minHitRate>9.9949997663497925e-001</minHitRate>
    <maxFalseAlarm>3.0000001192092896e-001</maxFalseAlarm>
    <weightTrimRate>9.4999999999999996e-001</weightTrimRate>
    <maxDepth>2</maxDepth>
    <maxWeakCount>200</maxWeakCount></stageParams>
  <featureParams>
    <maxCatCount>0</maxCatCount>
    <featSize>36</featSize></featureParams>
  <stageNum>20</stageNum>
  <stages>
    <!-- stage 0 -->
    <_>
      <maxWeakCount>10</maxWeakCount>
      <stageThreshold>-1.7404295206069946e+000</stageThreshold>
      <weakClassifiers>
        <_>
          <internalNodes>
            1 2 301 2.6401720941066742e-002 0 -1 273
            2.6751246303319931e-002 -2 -3 307 1.8973907455801964e-002</internalNodes>
          <leafValues>
            -9.1457283496856689e-001 -7.9027358442544937e-003
            -3.4796747565269470e-001 9.2897737026214600e-001</leafValues></_>
        <_>
          <internalNodes>
            1 2 44 3.1827643513679504e-002 0 -1 210
            3.0101440846920013e-002 -2 -3 273 1.7185330390930176e-002</internalNodes>
          <leafValues>
            -7.7733165025711060e-001 1.3110652565956116e-001
            -5.9719401597976685e-001 8.6697280406951904e-001</leafValues></_>
        <_>
          <internalNodes>
            1 2 46 3.2862029969692230e-002 0 -1 163
            3.7560701370239258e-002 -2 -3 31 1.9997922703623772e-002</internalNodes>
          <leafValues>
            -7.4585783481597900e-001 5.9634745121002197e-002
            -3.8160315155982971e-001 7.7230745553970337e-001</leafValues></_>
        <_>
          <internalNodes>
            1 2 211 3.5228367894887924e-002 0 -1 229
            6.3238345086574554e-002 -2 -3 224 1.3836661353707314e-002</internalNodes>
          <leafValues>
            -6.0833597183227539e-001 3.1076613068580627e-001
            -4.1067180037498474e-001 6.7579126358032227e-001</leafValues></_>
        <_>
          <internalNodes>
            1 2 300 2.3789681494235992e-002 0 -1 254
            1.1038843542337418e-002 -2 -3 20 2.7705628424882889e-002</internalNodes>
          <leafValues>
            2.9579680413007736e-002 -7.7547568082809448e-001
            -2.2140185534954071e-001 6.0249412059783936e-001</leafValues></_>
        <_>
          <internalNodes>
            1 2 1 2.0699186250567436e-002 0 -1 57
            1.6688875854015350e-002 -2 -3 224 3.8057252764701843e-002</internalNodes>
          <leafValues>
            -4.6211838722229004e-001 4.4507604837417603e-001
            -6.6785711050033569e-001 -4.9399051815271378e-002</leafValues></_>
        <_>
          <internalNodes>
            1 2 17 5.7406052947044373e-002 0 -1 148
            1.8924806267023087e-002 -2 -3 308 1.7701413482427597e-002</internalNodes>
          <leafValues>
            -6.9281578063964844e-001 -4.5206304639577866e-002
            -6.7358571290969849e-001 6.9988501071929932e-001</leafValues></_>
        <_>
          <internalNodes>
            1 2 354 1.8334079533815384e-002 0 -1 245
            2.4301163852214813e-002 -2 -3 96 8.9791184291243553e-003</internalNodes>
          <leafValues>
            -7.6353532075881958e-001 -1.9798739254474640e-001
            -5.4114311933517456e-001 3.1733909249305725e-001</leafValues></_>
        <_>
          <internalNodes>
            1 2 307 3.2579969614744186e-002 0 -1 220
            5.4799668490886688e-002 -2 -3 335 4.6753294765949249e-002</internalNodes>
          <leafValues>
            -5.2760732173919678e-001 1.9908644258975983e-001
            3.4877237677574158e-001 -7.7251082658767700e-001</leafValues></_>
        <_>
          <internalNodes>
            1 2 338 3.6720544099807739e-002 0 -1 264
            1.6836399212479591e-002 -2 -3 258 3.6039058119058609e-002</internalNodes>
          <leafValues>
            -6.2157285213470459e-001 2.1779944002628326e-001
            -8.5920453071594238e-001 2.3323750123381615e-002</leafValues></_></weakClassifiers></_>
    <!-- stage 1 -->
    <_>
      <maxWeakCount>13</maxWeakCount>
      <stageThreshold>-1.7069900035858154e+000</stageThreshold>
      <weakClassifiers>
        <_>
          <internalNodes>
            1 2 21 1.7459262162446976e-002 0 -1 192
            2.1889660507440567e-002 -2 -3 300 1.3167595490813255e-002</internalNodes>
          <leafValues>
            -8.8358342647552490e-001 1.8024513497948647e-002
            -4.6347030997276306e-001 8.9475405216217041e-001</leafValues></_>
        <_>
          <internalNodes>
            1 2 246 3.1522229313850403e-002 0 -1 32
            2.5975786149501801e-002 -2 -3 100 2.0700264722108841e-002</internalNodes>
          <leafValues>
            -6.1644548177719116e-001 2.4632996320724487e-001
            -4.4032517075538635e-001 8.4247940778732300e-001</leafValues></_>
        <_>
          <internalNodes>
            1 2 109 3.8027435541152954e-002 0 -1 307
            3.7207502871751785e-002 -2 -3 44 2.9645595699548721e-002</internalNodes>
          <leafValues>
            -6.6893231868743896e-001 2.5859570130705833e-002
            -2.7656185626983643e-001 7.5899791717529297e-001</leafValues></_>
        <_>
          <internalNodes>
            1 2 20 3.5461463034152985e-002 0 -1 309
            2.6089750230312347e-002 -2 -3 38 2.8417548164725304e-002</internalNodes>
          <leafValues>
            -7.1279686689376831e-001 -4.5177552849054337e-002
            6.4051127433776855e-001 -5.7026368379592896e-001</leafValues></_>
        <_>
          <internalNodes>
            1 2 301 3.4169778227806091e-002 0 -1 348
            2.8247475624084473e-002 -2 -3 318 1.3248872011899948e-002</internalNodes>
          <leafValues>
            -7.1980500221252441e-001 -1.8150795996189117e-001
            -7.1654355525970459e-001 4.2953991889953613e-001</leafValues></_>
        <_>
          <internalNodes>
            1 2 163 4.0187828242778778e-002 0 -1 204
            2.6222825050354004e-002 -2 -3 228 2.1633686497807503e-002</internalNodes>
          <leafValues>
            -5.9254646301269531e-001 6.7590780556201935e-002
            -1.3661663234233856e-001 5.9440290927886963e-001</leafValues></_>
        <_>
          <internalNodes>
            1 2 341 1.7659965902566910e-002 0 -1 340
            7.7337673865258694e-003 -2 -3 1 2.2810272872447968e-002</internalNodes>
          <leafValues>
            -9.1987729072570801e-001 -4.1829055547714233e-001
            3.6147680878639221e-001 -4.1202720999717712e-001</leafValues></_>
        <_>
          <internalNodes>
            1 2 44 1.3637445867061615e-002 0 -1 162
            2.9438437893986702e-002 -2 -3 264 2.3817613720893860e-002</internalNodes>
          <leafValues>
            -8.3448517322540283e-001 -2.4633356928825378e-001
            -3.7209281325340271e-001 2.8653183579444885e-001</leafValues></_>
        <_>
          <internalNodes>
            1 2 190 2.8326693922281265e-002 0 -1 145
            2.4375729262828827e-002 -2 -3 17 7.8467085957527161e-002</internalNodes>
          <leafValues>
            -2.5536882877349854e-001 3.6118236184120178e-001
            -5.9538561105728149e-001 4.1380602121353149e-001</leafValues></_>
        <_>
          <internalNodes>
            1 2 308 1.5299275517463684e-002 0 -1 271
            3.0068308115005493e-002 -2 -3 346 1.7798291519284248e-002</internalNodes>
          <leafValues>
            -8.7749373912811279e-001 -2.7310073375701904e-001
            -5.8951610326766968e-001 1.8678386509418488e-001</leafValues></_>
        <_>
          <internalNodes>
            1 2 248 2.4761680513620377e-002 0 -1 355
            2.2102110087871552e-002 -2 -3 162 1.6961250454187393e-002</internalNodes>
          <leafValues>
            -4.2066136002540588e-001 2.5917837023735046e-001
            -8.6403942108154297e-001 -2.7477905154228210e-001</leafValues></_>
        <_>
          <internalNodes>
            1 2 227 2.3349571973085403e-002 0 -1 339
            2.2429466247558594e-002 -2 -3 98 3.1435690820217133e-002</internalNodes>
          <leafValues>
            3.6299324035644531e-001 -2.5910845398902893e-001
            -1.8644738197326660e-001 -6.9479191303253174e-001</leafValues></_>
        <_>
          <internalNodes>
            1 2 149 1.1107527650892735e-002 0 -1 343
            3.8018867373466492e-002 -2 -3 337 1.9656848162412643e-002</internalNodes>
          <leafValues>
            -6.7792826890945435e-001 -1.5871459245681763e-001
            -5.7340645790100098e-001 2.0020796358585358e-001</leafValues></_></weakClassifiers></_>
    <!-- stage 2 -->
    <_>
      <maxWeakCount>24</maxWeakCount>
      <stageThreshold>-1.7359943389892578e+000</stageThreshold>
      <weakClassifiers>
        <_>
          <internalNodes>
            1 2 46 2.3330166935920715e-002 0 -1 163
            3.2263718545436859e-002 -2 -3 307 2.1963255479931831e-002</internalNodes>
          <leafValues>
            -7.7179235219955444e-001 1.6218419373035431e-001
            -1.0693453997373581e-001 9.0960258245468140e-001</leafValues></_>
        <_>
          <internalNodes>
            1 2 44 2.6941210031509399e-002 0 -1 162
            2.2667488083243370e-002 -2 -3 20 2.2467009723186493e-002</internalNodes>
          <leafValues>
            -7.6765710115432739e-001 -1.5353831648826599e-001
            -1.9653433561325073e-001 7.6838797330856323e-001</leafValues></_>
        <_>
          <internalNodes>
            1 2 6 2.9662355780601501e-002 0 -1 354
            2.3581992834806442e-002 -2 -3 21 2.6983600109815598e-002</internalNodes>
          <leafValues>
            -7.3191738128662109e-001 -5.7937916368246078e-002
            -1.3967676460742950e-001 7.6858717203140259e-001</leafValues></_>
        <_>
          <internalNodes>
            1 2 100 2.8305869549512863e-002 0 -1 65
            2.6611350476741791e-002 -2 -3 224 1.5444379299879074e-002</internalNodes>
          <leafValues>
            -7.2324490547180176e-001 -1.7842507362365723e-001
            -4.4959023594856262e-001 4.6583908796310425e-001</leafValues></_>
        <_>
          <internalNodes>
            1 2 300 2.2957472130656242e-002 0 -1 33
            3.0672777444124222e-002 -2 -3 145 3.2570131123065948e-002</internalNodes>
          <leafValues>
            -7.6280432939529419e-001 -2.5440734624862671e-001
            -1.8877109885215759e-001 4.6717983484268188e-001</leafValues></_>
        <_>
          <internalNodes>
            1 2 30 2.1053822711110115e-002 0 -1 32
            2.1629191935062408e-002 -2 -3 33 2.3670602589845657e-002</internalNodes>
          <leafValues>
            -7.2386074066162109e-001 -2.4878551065921783e-001
            -1.5751191973686218e-001 3.9443755149841309e-001</leafValues></_>
        <_>
          <internalNodes>
            1 2 301 3.7119030952453613e-002 0 -1 271
            3.3710561692714691e-002 -2 -3 206 1.4085333794355392e-002</internalNodes>
          <leafValues>
            -5.3710687160491943e-001 -7.2423659265041351e-002
            -3.8369858264923096e-001 3.5744053125381470e-001</leafValues></_>
        <_>
          <internalNodes>
            1 2 248 2.4699084460735321e-002 0 -1 3
            4.8694486031308770e-004 -2 -3 254 1.4286180026829243e-002</internalNodes>
          <leafValues>
            -8.5858374834060669e-001 1.9513897597789764e-001
            -1.1174524575471878e-001 -6.4052248001098633e-001</leafValues></_>
        <_>
          <internalNodes>
            1 2 210 2.5168966501951218e-002 0 -1 17
            4.6154364943504333e-002 -2 -3 307 3.1888738274574280e-002</internalNodes>
          <leafValues>
            -5.6921327114105225e-001 2.0245561376214027e-002
            -1.8070264160633087e-001 3.5547402501106262e-001</leafValues></_>
        <_>
          <internalNodes>
            1 2 347 2.5837447494268417e-002 0 -1 146
            1.5150017105042934e-002 -2 -3 44 8.9949239045381546e-003</internalNodes>
          <leafValues>
            -7.2222936153411865e-001 -7.7308543026447296e-002
            -6.4201694726943970e-001 3.3309110999107361e-001</leafValues></_>
        <_>
          <internalNodes>
            1 2 58 1.9527904689311981e-002 0 -1 314
            2.4716310203075409e-002 -2 -3 195 2.3031838238239288e-002</internalNodes>
          <leafValues>
            -1.4531059563159943e-001 -7.0235639810562134e-001
            2.0405806601047516e-001 -3.2371896505355835e-001</leafValues></_>
        <_>
          <internalNodes>
            1 2 269 2.3600364103913307e-002 0 -1 335
            3.3100288361310959e-002 -2 -3 84 1.2264280579984188e-002</internalNodes>
          <leafValues>
            -1.3135007023811340e-001 -7.5228017568588257e-001
            -5.6072109937667847e-001 2.8030738234519958e-001</leafValues></_>
        <_>
          <internalNodes>
            1 2 101 1.8496688455343246e-002 0 -1 73
            4.0386371314525604e-002 -2 -3 342 1.3650622218847275e-002</internalNodes>
          <leafValues>
            -5.9916234016418457e-001 1.6424027085304260e-001
            -4.9241545796394348e-001 1.9487018883228302e-001</leafValues></_>
        <_>
          <internalNodes>
            1 2 244 1.6548015177249908e-002 0 -1 229
            4.9532134085893631e-002 -2 -3 249 1.2343470938503742e-002</internalNodes>
          <leafValues>
            -5.5921918153762817e-001 -2.4163246154785156e-002
            3.7245494127273560e-001 -5.8663770556449890e-002</leafValues></_>
        <_>
          <internalNodes>
            1 2 149 1.4405190013349056e-002 0 -1 57
            3.0962575227022171e-002 -2 -3 227 3.1324010342359543e-002</internalNodes>
          <leafValues>
            -5.9731543064117432e-001 -6.6367752850055695e-002
            2.4200300872325897e-001 -3.3776536583900452e-001</leafValues></_>
        <_>
          <internalNodes>
            1 2 337 2.5449056178331375e-002 0 -1 219
            1.9165011122822762e-002 -2 -3 216 1.2067984789609909e-002</internalNodes>
          <leafValues>
            -7.7086722850799561e-001 -1.9627298414707184e-001
            -3.0785447359085083e-001 2.1417161822319031e-001</leafValues></_>
        <_>
          <internalNodes>
            1 2 163 5.6497156620025635e-002 0 -1 204
            2.6951355859637260e-002 -2 -3 55 1.9411295652389526e-002</internalNodes>
          <leafValues>
            -2.9524889588356018e-001 1.5460269153118134e-001
            -3.7126606702804565e-001 4.9916449189186096e-001</leafValues></_>
        <_>
          <internalNodes>
            1 2 21 1.0835348628461361e-002 0 -1 15
            5.3959809243679047e-002 -2 -3 46 3.7425756454467773e-002</internalNodes>
          <leafValues>
            -7.3166865110397339e-001 4.3040293455123901e-001
            -7.9348906874656677e-002 3.3178263902664185e-001</leafValues></_>
        <_>
          <internalNodes>
            1 2 1 2.7323342859745026e-002 0 -1 248
            3.2451733946800232e-002 -2 -3 50 5.7068351656198502e-002</internalNodes>
          <leafValues>
            1.4228874444961548e-001 -4.1435983777046204e-001
            -4.8425105214118958e-001 6.4352351427078247e-001</leafValues></_>
        <_>
          <internalNodes>
            1 2 335 4.6219214797019958e-002 0 -1 181
            1.5042437240481377e-002 -2 -3 44 6.9562315940856934e-002</internalNodes>
          <leafValues>
            -2.7072030305862427e-001 1.3486374914646149e-001
            -8.3439290523529053e-001 2.9881287366151810e-002</leafValues></_>
        <_>
          <internalNodes>
            1 2 106 6.2530431896448135e-003 0 -1 107
            1.8975749611854553e-002 -2 -3 211 3.6464016884565353e-002</internalNodes>
          <leafValues>
            -7.3019552230834961e-001 -1.0764582455158234e-001
            -1.6953964531421661e-001 2.3399306833744049e-001</leafValues></_>
        <_>
          <internalNodes>
            1 2 23 2.4310518056154251e-002 0 -1 277
            2.9379915446043015e-002 -2 -3 335 2.2640803828835487e-002</internalNodes>
          <leafValues>
            1.9352392852306366e-001 -4.7181987762451172e-001
            -3.5455066710710526e-002 -6.3900345563888550e-001</leafValues></_>
        <_>
          <internalNodes>
            1 2 44 1.1005803942680359e-002 0 -1 43
            1.3154147192835808e-002 -2 -3 253 7.7763143926858902e-003</internalNodes>
          <leafValues>
            -7.2257828712463379e-001 7.6553188264369965e-002
            5.3149121999740601e-001 -1.7047630622982979e-002</leafValues></_>
        <_>
          <internalNodes>
            1 2 233 1.3804305344820023e-002 0 -1 199
            2.3784019052982330e-002 -2 -3 7 5.6218784302473068e-003</internalNodes>
          <leafValues>
            -6.4860999584197998e-001 -8.2027666270732880e-002
            -4.0745696425437927e-001 1.7254096269607544e-001</leafValues></_></weakClassifiers></_>
    <!-- stage 3 -->
    <_>
      <maxWeakCount>41</maxWeakCount>
      <stageThreshold>-1.5679893493652344e+000</stageThreshold>
      <weakClassifiers>
        <_>
          <internalNodes>
            1 2 44 3.7595383822917938e-002 0 -1 307
            3.0349157750606537e-002 -2 -3 46 3.0881907790899277e-002</internalNodes>
          <leafValues>
            -4.4824707508087158e-001 4.4103774428367615e-001
            3.9108553528785706e-001 9.3644815683364868e-001</leafValues></_>
        <_>
          <internalNodes>
            1 2 254 1.7757931724190712e-002 0 -1 300
            1.5837971121072769e-002 -2 -3 192 3.8491450250148773e-002</internalNodes>
          <leafValues>
            -5.3455972671508789e-001 7.0009845495223999e-001
            -5.2772098779678345e-001 1.8439337611198425e-001</leafValues></_>
        <_>
          <internalNodes>
            1 2 109 4.3604336678981781e-002 0 -1 163
            4.2916208505630493e-002 -2 -3 37 2.5105435401201248e-002</internalNodes>
          <leafValues>
            -5.3057634830474854e-001 5.4662663489580154e-002
            6.7720764875411987e-001 -2.5309142470359802e-001</leafValues></_>
        <_>
          <internalNodes>
            1 2 20 3.5415045917034149e-002 0 -1 19
            3.5274736583232880e-002 -2 -3 32 2.3274896666407585e-002</internalNodes>
          <leafValues>
            -5.1276534795761108e-001 7.8908957540988922e-002
            -1.4233751595020294e-001 6.0720711946487427e-001</leafValues></_>
        <_>
          <internalNodes>
            1 2 211 4.5752048492431641e-002 0 -1 17
            5.3567253053188324e-002 -2 -3 309 1.7345007508993149e-002</internalNodes>
          <leafValues>
            -4.6257951855659485e-001 1.4881993830204010e-001
            -7.2803717851638794e-001 3.7945348024368286e-001</leafValues></_>
        <_>
          <internalNodes>
            1 2 301 2.8424529358744621e-002 0 -1 301
            1.8730495125055313e-002 -2 -3 338 2.4310700595378876e-002</internalNodes>
          <leafValues>
            -8.3218097686767578e-001 -4.0934580564498901e-001
            2.8991228342056274e-001 -3.6344096064567566e-001</leafValues></_>
        <_>
          <internalNodes>
            1 2 103 5.3839690983295441e-002 0 -1 6
            2.2007603198289871e-002 -2 -3 76 2.9304087162017822e-002</internalNodes>
          <leafValues>
            -1.5621954202651978e-001 3.2633084058761597e-001
            -2.7297958731651306e-001 -8.6762177944183350e-001</leafValues></_>
        <_>
          <internalNodes>
            1 2 354 1.4833718538284302e-002 0 -1 39
            2.5993015617132187e-002 -2 -3 224 2.5919392704963684e-002</internalNodes>
          <leafValues>
            -8.0478388071060181e-001 -2.2931486368179321e-001
            -2.2800807654857635e-001 2.8756010532379150e-001</leafValues></_>
        <_>
          <internalNodes>
            1 2 248 2.0146742463111877e-002 0 -1 227
            3.5828530788421631e-002 -2 -3 163 2.1395780146121979e-002</internalNodes>
          <leafValues>
            2.3469026386737823e-001 -3.9237102866172791e-001
            -7.5117129087448120e-001 -2.0497417449951172e-001</leafValues></_>
        <_>
          <internalNodes>
            1 2 325 1.7908684909343719e-002 0 -1 342
            2.4447230622172356e-002 -2 -3 339 1.5823431313037872e-002</internalNodes>
          <leafValues>
            -7.5839924812316895e-001 -2.3848325014114380e-001
            2.9990676045417786e-001 -1.4529633522033691e-001</leafValues></_>
        <_>
          <internalNodes>
            1 2 31 2.6303673163056374e-002 0 -1 32
            4.0696576237678528e-002 -2 -3 256 3.1686469912528992e-002</internalNodes>
          <leafValues>
            -4.4733595848083496e-001 3.0998003482818604e-001
            3.0341723561286926e-001 -1.6756650805473328e-001</leafValues></_>
        <_>
          <internalNodes>
            1 2 291 7.7467178925871849e-003 0 -1 51
            3.5565295256674290e-003 -2 -3 317 4.5444361865520477e-002</internalNodes>
          <leafValues>
            2.8744801878929138e-002 -7.4269616603851318e-001
            1.2367139011621475e-001 -5.1440584659576416e-001</leafValues></_>
        <_>
          <internalNodes>
            1 2 244 2.9953595250844955e-002 0 -1 229
            4.1377648711204529e-002 -2 -3 264 1.6909584403038025e-002</internalNodes>
          <leafValues>
            -4.8303794860839844e-001 5.3953710943460464e-002
            -6.2692981958389282e-001 2.7899011969566345e-001</leafValues></_>
        <_>
          <internalNodes>
            1 2 44 1.1541545391082764e-002 0 -1 41
            1.5692763030529022e-002 -2 -3 343 2.0093291997909546e-002</internalNodes>
          <leafValues>
            -8.2517302036285400e-001 -3.3704558014869690e-001
            -4.6092754602432251e-001 1.3335020840167999e-001</leafValues></_>
        <_>
          <internalNodes>
            1 2 33 1.6400082036852837e-002 0 -1 92
            5.9752583503723145e-002 -2 -3 277 1.8234994262456894e-002</internalNodes>
          <leafValues>
            -2.0739965140819550e-001 -8.5403883457183838e-001
            3.4309548139572144e-001 -1.3308288156986237e-001</leafValues></_>
        <_>
          <internalNodes>
            1 2 21 2.5771409273147583e-002 0 -1 73
            1.6985638067126274e-002 -2 -3 63 1.7513837665319443e-002</internalNodes>
          <leafValues>
            5.6893192231655121e-003 -4.7815871238708496e-001
            -2.4412317574024200e-001 2.3688076436519623e-001</leafValues></_>
        <_>
          <internalNodes>
            1 2 233 2.5700664147734642e-002 0 -1 138
            3.7384644150733948e-002 -2 -3 190 3.8088463246822357e-002</internalNodes>
          <leafValues>
            -4.9834210425615311e-002 -4.4258132576942444e-001
            2.6558482646942139e-001 -4.1330447793006897e-001</leafValues></_>
        <_>
          <internalNodes>
            1 2 308 2.4944785982370377e-002 0 -1 25
            1.5831243246793747e-002 -2 -3 204 1.4506619423627853e-002</internalNodes>
          <leafValues>
            -9.5858901739120483e-002 -5.3550380468368530e-001
            -1.7054089903831482e-001 2.1213671565055847e-001</leafValues></_>
        <_>
          <internalNodes>
            1 2 229 5.8040685951709747e-002 0 -1 319
            1.5955409035086632e-002 -2 -3 230 2.6244867593050003e-002</internalNodes>
          <leafValues>
            -7.2199046611785889e-001 -7.7497586607933044e-002
            4.0387940406799316e-001 -2.1931163966655731e-001</leafValues></_>
        <_>
          <internalNodes>
            1 2 146 1.9034933298826218e-002 0 -1 335
            1.8103612586855888e-002 -2 -3 268 1.0787549428641796e-002</internalNodes>
          <leafValues>
            -3.4500525798648596e-003 -5.5121380090713501e-001
            -3.3904927968978882e-001 1.9302263855934143e-001</leafValues></_>
        <_>
          <internalNodes>
            1 2 1 1.2911060824990273e-002 0 -1 55
            2.0560570061206818e-002 -2 -3 219 2.5699665769934654e-002</internalNodes>
          <leafValues>
            -1.3028816878795624e-001 3.0598956346511841e-001
            -4.4237017631530762e-001 -1.2244630604982376e-002</leafValues></_>
        <_>
          <internalNodes>
            1 2 23 1.7712146043777466e-002 0 -1 58
            9.3778483569622040e-003 -2 -3 210 3.3247090876102448e-002</internalNodes>
          <leafValues>
            -7.2482138872146606e-001 1.8265965580940247e-001
            -3.7010121345520020e-001 1.1376999318599701e-002</leafValues></_>
        <_>
          <internalNodes>
            1 2 65 7.4310123920440674e-002 0 -1 163
            6.2112845480442047e-002 -2 -3 169 1.8148748204112053e-002</internalNodes>
          <leafValues>
            -4.4698685407638550e-002 3.4394931793212891e-001
            -8.6237543821334839e-001 -2.2978559136390686e-001</leafValues></_>
        <_>
          <internalNodes>
            1 2 203 2.0835828036069870e-002 0 -1 9
            2.4911914020776749e-002 -2 -3 60 2.7824576944112778e-002</internalNodes>
          <leafValues>
            -3.5455232858657837e-001 5.8272443711757660e-002
            -1.2821102514863014e-002 3.7952801585197449e-001</leafValues></_>
        <_>
          <internalNodes>
            1 2 249 1.9029304385185242e-002 0 -1 161
            9.0772081166505814e-003 -2 -3 226 1.7030643299221992e-002</internalNodes>
          <leafValues>
            -3.4942317008972168e-001 1.8880866467952728e-001
            -2.4459697306156158e-003 -4.3002414703369141e-001</leafValues></_>
        <_>
          <internalNodes>
            1 2 82 3.1388849020004272e-002 0 -1 251
            2.9078120365738869e-002 -2 -3 122 1.6430912539362907e-002</internalNodes>
          <leafValues>
            -3.2492652535438538e-001 1.2583823502063751e-001
            -1.6660766303539276e-001 3.0356365442276001e-001</leafValues></_>
        <_>
          <internalNodes>
            1 2 133 2.9832392930984497e-002 0 -1 21
            1.4197940472513437e-003 -2 -3 255 2.0009431988000870e-002</internalNodes>
          <leafValues>
            -9.7560673952102661e-001 8.3518043160438538e-002
            9.9928513169288635e-002 -5.8416426181793213e-001</leafValues></_>
        <_>
          <internalNodes>
            1 2 282 8.8169779628515244e-003 0 -1 177
            5.8825209736824036e-002 -2 -3 333 1.2272684834897518e-002</internalNodes>
          <leafValues>
            -8.3117723464965820e-001 7.3463702201843262e-001
            -2.4461752176284790e-001 8.0553710460662842e-002</leafValues></_>
        <_>
          <internalNodes>
            1 2 340 2.3427499458193779e-002 0 -1 205
            5.2937187254428864e-002 -2 -3 293 2.4548988789319992e-002</internalNodes>
          <leafValues>
            1.1812379211187363e-001 -6.8777042627334595e-001
            -4.3638217449188232e-001 7.1156822144985199e-002</leafValues></_>
        <_>
          <internalNodes>
            1 2 285 3.0016951262950897e-002 0 -1 254
            1.8372807651758194e-002 -2 -3 100 1.8327370285987854e-002</internalNodes>
          <leafValues>
            -2.7019917964935303e-001 4.1701138019561768e-002
            -3.9580306410789490e-001 3.4810179471969604e-001</leafValues></_>
        <_>
          <internalNodes>
            1 2 74 4.8668716102838516e-002 0 -1 191
            4.6217940747737885e-002 -2 -3 127 6.0996085405349731e-002</internalNodes>
          <leafValues>
            7.5540624558925629e-002 -4.5408004522323608e-001
            -6.9524025917053223e-001 3.6241793632507324e-001</leafValues></_>
        <_>
          <internalNodes>
            1 2 301 3.6807436496019363e-002 0 -1 164
            3.4041091799736023e-002 -2 -3 103 3.2855078577995300e-002</internalNodes>
          <leafValues>
            -3.6947602033615112e-001 5.4216518998146057e-002
            2.4088890850543976e-001 -1.1185808479785919e-001</leafValues></_>
        <_>
          <internalNodes>
            1 2 57 9.8160654306411743e-003 0 -1 113
            3.1325854361057281e-002 -2 -3 76 2.2541498765349388e-002</internalNodes>
          <leafValues>
            -8.0624938011169434e-001 1.0946115851402283e-001
            1.6850841045379639e-001 -8.7314993143081665e-002</leafValues></_>
        <_>
          <internalNodes>
            1 2 129 9.1925850138068199e-003 0 -1 150
            2.1441297605633736e-002 -2 -3 233 3.4570373594760895e-002</internalNodes>
          <leafValues>
            -8.4146541357040405e-001 4.3837055563926697e-002
            -5.6075800210237503e-002 2.1154448390007019e-001</leafValues></_>
        <_>
          <internalNodes>
            1 2 355 2.9553141444921494e-002 0 -1 278
            2.1791916340589523e-002 -2 -3 162 2.5653831660747528e-002</internalNodes>
          <leafValues>
            1.9247068092226982e-002 -3.9105865359306335e-001
            -1.1530495434999466e-001 2.4165044724941254e-001</leafValues></_>
        <_>
          <internalNodes>
            1 2 248 3.4568749368190765e-002 0 -1 260
            7.1471962146461010e-003 -2 -3 42 3.8786567747592926e-002</internalNodes>
          <leafValues>
            -7.9710936546325684e-001 6.4194828271865845e-002
            -5.9933066368103027e-001 2.8473636507987976e-001</leafValues></_>
        <_>
          <internalNodes>
            1 2 353 6.2063671648502350e-002 0 -1 339
            2.8881061822175980e-002 -2 -3 69 5.1380716264247894e-002</internalNodes>
          <leafValues>
            6.0049075633287430e-002 -2.6847952604293823e-001
            -8.4161311388015747e-001 7.0594912767410278e-001</leafValues></_>
        <_>
          <internalNodes>
            1 2 2 1.1649183928966522e-002 0 -1 311
            2.1409351378679276e-002 -2 -3 47 2.0072370767593384e-002</internalNodes>
          <leafValues>
            -1.3626140356063843e-001 3.7342900037765503e-001
            -3.2612383365631104e-001 2.2959398105740547e-002</leafValues></_>
        <_>
          <internalNodes>
            1 2 277 4.1209302842617035e-002 0 -1 22
            7.4044473469257355e-002 -2 -3 76 4.3386323377490044e-003</internalNodes>
          <leafValues>
            6.3383452594280243e-002 -3.5568919777870178e-001
            9.4242525100708008e-001 -8.2388901710510254e-001</leafValues></_>
        <_>
          <internalNodes>
            1 2 320 4.6829007565975189e-002 0 -1 343
            3.2547846436500549e-002 -2 -3 321 2.2286167368292809e-002</internalNodes>
          <leafValues>
            -1.2572942674160004e-001 1.1509062349796295e-001
            1.9147816300392151e-001 -7.7684402465820313e-001</leafValues></_>
        <_>
          <internalNodes>
            1 2 190 2.6527451351284981e-002 0 -1 316
            5.0986744463443756e-002 -2 -3 17 6.3741892576217651e-002</internalNodes>
          <leafValues>
            1.0641853511333466e-001 -5.5585551261901855e-001
            -3.4549894928932190e-001 3.6754631996154785e-001</leafValues></_></weakClassifiers></_>
    <!-- stage 4 -->
    <_>
      <maxWeakCount>63</maxWeakCount>
      <stageThreshold>-1.3963488340377808e+000</stageThreshold>
      <weakClassifiers>
        <_>
          <internalNodes>
            1 2 44 3.4318216145038605e-002 0 -1 100
            3.6638021469116211e-002 -2 -3 46 2.7010247111320496e-002</internalNodes>
          <leafValues>
            -2.8632479906082153e-001 3.7116962671279907e-001
            2.6532399654388428e-001 9.0684485435485840e-001</leafValues></_>
        <_>
          <internalNodes>
            1 2 6 3.5134553909301758e-002 0 -1 193
            4.7186829149723053e-002 -2 -3 20 2.6174098253250122e-002</internalNodes>
          <leafValues>
            -3.5476273298263550e-001 2.9285937547683716e-001
            3.1065691262483597e-002 8.5211521387100220e-001</leafValues></_>
        <_>
          <internalNodes>
            1 2 254 1.4121359214186668e-002 0 -1 109
            3.3084787428379059e-002 -2 -3 19 4.3243452906608582e-002</internalNodes>
          <leafValues>
            1.1236115358769894e-002 7.3537129163742065e-001
            -4.6383219957351685e-001 2.2243304550647736e-001</leafValues></_>
        <_>
          <internalNodes>
            1 2 246 4.2032293975353241e-002 0 -1 33
            3.0310599133372307e-002 -2 -3 229 4.4425506144762039e-002</internalNodes>
          <leafValues>
            -4.5447713136672974e-001 4.1313234716653824e-002
            -1.2282069027423859e-001 6.2499547004699707e-001</leafValues></_>
        <_>
          <internalNodes>
            1 2 21 3.1487181782722473e-002 0 -1 56
            4.0417708456516266e-002 -2 -3 64 3.3131457865238190e-002</internalNodes>
          <leafValues>
            -4.9217525124549866e-001 -6.9794170558452606e-002
            -2.1803517639636993e-001 3.7546461820602417e-001</leafValues></_>
        <_>
          <internalNodes>
            1 2 224 3.1382001936435699e-002 0 -1 338
            1.7255105078220367e-002 -2 -3 192 4.1415780782699585e-002</internalNodes>
          <leafValues>
            6.7264852114021778e-003 -4.0175819396972656e-001
            -5.7053741067647934e-002 5.5524146556854248e-001</leafValues></_>
        <_>
          <internalNodes>
            1 2 32 3.3032912760972977e-002 0 -1 31
            4.6425282955169678e-002 -2 -3 204 2.1002197638154030e-002</internalNodes>
          <leafValues>
            -2.9755738377571106e-001 1.0452345758676529e-001
            -1.0938014835119247e-001 4.6853277087211609e-001</leafValues></_>
        <_>
          <internalNodes>
            1 2 166 4.2546868324279785e-002 0 -1 265
            3.1956709921360016e-002 -2 -3 1 8.3702933043241501e-003</internalNodes>
          <leafValues>
            -1.8120291829109192e-001 2.3703144490718842e-001
            1.5521003864705563e-002 -5.2613306045532227e-001</leafValues></_>
        <_>
          <internalNodes>
            1 2 19 1.8858099356293678e-002 0 -1 55
            2.9070260003209114e-002 -2 -3 17 5.7696633040904999e-002</internalNodes>
          <leafValues>
            -5.0439000129699707e-001 1.6015914082527161e-001
            -1.0947193950414658e-002 4.3093779683113098e-001</leafValues></_>
        <_>
          <internalNodes>
            1 2 319 2.3182718083262444e-002 0 -1 314
            2.8430366888642311e-002 -2 -3 244 2.5754213333129883e-002</internalNodes>
          <leafValues>
            -1.4350593090057373e-001 -7.3613280057907104e-001
            -1.2193966656923294e-001 2.5218820571899414e-001</leafValues></_>
        <_>
          <internalNodes>
            1 2 1 2.5914432480931282e-002 0 -1 325
            1.5707345679402351e-002 -2 -3 145 1.9462633877992630e-002</internalNodes>
          <leafValues>
            -4.1143605113029480e-001 1.4245505630970001e-001
            -7.2861433029174805e-001 -2.2212953865528107e-001</leafValues></_>
        <_>
          <internalNodes>
            1 2 300 1.9815798848867416e-002 0 -1 282
            2.2467635571956635e-002 -2 -3 191 3.9159424602985382e-002</internalNodes>
          <leafValues>
            -7.2117340564727783e-001 -2.7054685354232788e-001
            1.1596859991550446e-001 -4.3973922729492188e-001</leafValues></_>
        <_>
          <internalNodes>
            1 2 308 2.3497186601161957e-002 0 -1 293
            5.1583293825387955e-002 -2 -3 296 1.7990101128816605e-002</internalNodes>
          <leafValues>
            -3.9513510465621948e-001 6.1003559827804565e-001
            -3.0733251571655273e-001 1.4752824604511261e-001</leafValues></_>
        <_>
          <internalNodes>
            1 2 100 5.2078306674957275e-002 0 -1 335
            2.3119011893868446e-002 -2 -3 247 5.5178124457597733e-002</internalNodes>
          <leafValues>
            3.1078828498721123e-002 -3.3258631825447083e-001
            1.7298273742198944e-002 5.9552961587905884e-001</leafValues></_>
        <_>
          <internalNodes>
            1 2 149 9.9180061370134354e-003 0 -1 17
            6.4342275261878967e-002 -2 -3 249 1.9010793417692184e-002</internalNodes>
          <leafValues>
            -4.6546712517738342e-001 1.1575537919998169e-001
            1.9358839094638824e-001 -1.6930598020553589e-001</leafValues></_>
        <_>
          <internalNodes>
            1 2 233 1.8612207844853401e-002 0 -1 254
            3.4889072179794312e-002 -2 -3 339 2.3687735199928284e-002</internalNodes>
          <leafValues>
            -1.4491498470306396e-001 -7.5641530752182007e-001
            2.1527382731437683e-001 -2.1796177327632904e-001</leafValues></_>
        <_>
          <internalNodes>
            1 2 337 1.7355069518089294e-002 0 -1 283
            5.8585599064826965e-002 -2 -3 354 1.2505386024713516e-002</internalNodes>
          <leafValues>
            -7.3664534091949463e-001 1.4953958988189697e-001
            -5.8813345432281494e-001 6.5731771290302277e-002</leafValues></_>
        <_>
          <internalNodes>
            1 2 204 3.7941426038742065e-002 0 -1 25
            1.4715015888214111e-002 -2 -3 60 2.4496385827660561e-002</internalNodes>
          <leafValues>
            9.1044247150421143e-002 -2.8276118636131287e-001
            8.1100380048155785e-003 4.9413532018661499e-001</leafValues></_>
        <_>
          <internalNodes>
            1 2 30 2.3920066654682159e-002 0 -1 326
            2.6721168309450150e-002 -2 -3 100 1.6876075416803360e-002</internalNodes>
          <leafValues>
            -4.6022206544876099e-001 -2.2929131984710693e-002
            -3.6974179744720459e-001 1.5262861549854279e-001</leafValues></_>
        <_>
          <internalNodes>
            1 2 248 2.2819023579359055e-002 0 -1 354
            8.7927803397178650e-002 -2 -3 14 5.4983526468276978e-002</internalNodes>
          <leafValues>
            1.0298831760883331e-001 -7.3142516613006592e-001
            -2.8033626079559326e-001 4.2552542686462402e-001</leafValues></_>
        <_>
          <internalNodes>
            1 2 5 1.5650648623704910e-002 0 -1 162
            2.2134482860565186e-002 -2 -3 44 6.0198053717613220e-002</internalNodes>
          <leafValues>
            -4.2633181810379028e-001 -6.0163483023643494e-002
            3.6579240113496780e-002 4.4342759251594543e-001</leafValues></_>
        <_>
          <internalNodes>
            1 2 190 2.8290783986449242e-002 0 -1 203
            2.5445334613323212e-002 -2 -3 17 8.0948077142238617e-002</internalNodes>
          <leafValues>
            -7.9445227980613708e-002 2.2870129346847534e-001
            -3.5203611850738525e-001 3.8049957156181335e-001</leafValues></_>
        <_>
          <internalNodes>
            1 2 23 1.2488915584981441e-002 0 -1 39
            3.3399886451661587e-003 -2 -3 312 2.7099244296550751e-002</internalNodes>
          <leafValues>
            -6.5225535631179810e-001 2.3291048407554626e-001
            -2.4120372533798218e-001 1.1054896563291550e-001</leafValues></_>
        <_>
          <internalNodes>
            1 2 145 3.8877930492162704e-002 0 -1 338
            1.3157839886844158e-002 -2 -3 301 2.9091428965330124e-002</internalNodes>
          <leafValues>
            1.6755561530590057e-001 -2.3149292171001434e-001
            -2.0237247645854950e-001 2.5784212350845337e-001</leafValues></_>
        <_>
          <internalNodes>
            1 2 87 8.5247717797756195e-003 0 -1 341
            1.1457314714789391e-002 -2 -3 182 1.4364344999194145e-002</internalNodes>
          <leafValues>
            -8.3755469322204590e-001 -1.5846757590770721e-001
            -2.6372900605201721e-001 1.3246063888072968e-001</leafValues></_>
        <_>
          <internalNodes>
            1 2 210 3.8122661411762238e-002 0 -1 313
            3.4470684826374054e-002 -2 -3 344 3.1297802925109863e-002</internalNodes>
          <leafValues>
            -8.2143314182758331e-002 -6.5921628475189209e-001
            -8.5110306739807129e-002 3.1109175086021423e-001</leafValues></_>
        <_>
          <internalNodes>
            1 2 195 9.4253476709127426e-003 0 -1 161
            1.1128026992082596e-002 -2 -3 243 4.5101754367351532e-002</internalNodes>
          <leafValues>
            -3.0772927403450012e-001 2.6833423972129822e-001
            -1.3248535990715027e-001 2.8247535228729248e-001</leafValues></_>
        <_>
          <internalNodes>
            1 2 355 1.0330798104405403e-002 0 -1 40
            5.4815322160720825e-002 -2 -3 44 6.9574569351971149e-003</internalNodes>
          <leafValues>
            -9.0700834989547729e-001 6.2566077709197998e-001
            -5.8402687311172485e-001 4.0813215076923370e-002</leafValues></_>
        <_>
          <internalNodes>
            1 2 24 1.4606768265366554e-002 0 -1 32
            2.1265070885419846e-002 -2 -3 306 1.9511876627802849e-002</internalNodes>
          <leafValues>
            -1.1665168404579163e-001 2.7718141674995422e-001
            -4.5435309410095215e-001 -1.2093812227249146e-002</leafValues></_>
        <_>
          <internalNodes>
            1 2 138 2.8748065233230591e-002 0 -1 278
            2.9414240270853043e-002 -2 -3 69 3.6483108997344971e-002</internalNodes>
          <leafValues>
            2.1412762999534607e-001 -1.7915910482406616e-001
            -2.1465831995010376e-001 2.8350177407264709e-001</leafValues></_>
        <_>
          <internalNodes>
            1 2 211 6.5812796354293823e-002 0 -1 343
            4.4233292341232300e-002 -2 -3 287 2.2623937577009201e-002</internalNodes>
          <leafValues>
            -1.5551342070102692e-001 1.0740995407104492e-001
            -1.0505340248346329e-001 4.9993202090263367e-001</leafValues></_>
        <_>
          <internalNodes>
            1 2 58 1.2526591308414936e-002 0 -1 275
            1.7281293869018555e-002 -2 -3 256 2.4778176099061966e-002</internalNodes>
          <leafValues>
            -7.9663026332855225e-001 -5.3071934729814529e-002
            1.8087728321552277e-001 -7.0962205529212952e-002</leafValues></_>
        <_>
          <internalNodes>
            1 2 147 1.5037393197417259e-002 0 -1 329
            9.8165739327669144e-003 -2 -3 190 5.0065368413925171e-002</internalNodes>
          <leafValues>
            -7.8161662817001343e-001 -1.5065361559391022e-001
            7.0840016007423401e-002 -5.7139343023300171e-001</leafValues></_>
        <_>
          <internalNodes>
            1 2 233 3.7635244429111481e-002 0 -1 209
            2.1708318963646889e-002 -2 -3 165 4.8628300428390503e-002</internalNodes>
          <leafValues>
            8.1419318914413452e-002 -2.4030376970767975e-001
            2.5058609247207642e-001 -3.8998061418533325e-001</leafValues></_>
        <_>
          <internalNodes>
            1 2 352 1.3099189847707748e-002 0 -1 334
            1.2799844145774841e-002 -2 -3 208 7.9206759110093117e-003</internalNodes>
          <leafValues>
            -6.3114482164382935e-001 -8.1439808011054993e-002
            4.5989784598350525e-001 5.5760410614311695e-003</leafValues></_>
        <_>
          <internalNodes>
            1 2 237 3.5995066165924072e-002 0 -1 228
            4.9402765929698944e-002 -2 -3 244 4.4159807264804840e-002</internalNodes>
          <leafValues>
            -2.1802185475826263e-001 1.7520439624786377e-001
            2.2403895854949951e-002 5.0342643260955811e-001</leafValues></_>
        <_>
          <internalNodes>
            1 2 214 6.1839736998081207e-002 0 -1 129
            1.1751111596822739e-002 -2 -3 261 1.4077940955758095e-002</internalNodes>
          <leafValues>
            -3.6253380775451660e-001 2.1152516826987267e-002 -1.
            8.2068711519241333e-001</leafValues></_>
        <_>
          <internalNodes>
            1 2 56 1.2867537327110767e-002 0 -1 271
            3.3401701599359512e-002 -2 -3 73 1.2896394357085228e-002</internalNodes>
          <leafValues>
            -5.7722836732864380e-001 2.1036149561405182e-001
            2.4131004512310028e-001 -4.1475687175989151e-002</leafValues></_>
        <_>
          <internalNodes>
            1 2 187 1.0091186501085758e-002 0 -1 79
            8.7750386446714401e-003 -2 -3 94 7.7830433845520020e-002</internalNodes>
          <leafValues>
            1.1303900182247162e-001 -3.8379669189453125e-001
            7.8712776303291321e-002 -4.8960372805595398e-001</leafValues></_>
        <_>
          <internalNodes>
            1 2 6 1.0657946579158306e-002 0 -1 310
            2.5838803499937057e-002 -2 -3 81 2.3862700909376144e-002</internalNodes>
          <leafValues>
            -5.4301273822784424e-001 -7.6575040817260742e-002
            -7.2546988725662231e-002 1.7893347144126892e-001</leafValues></_>
        <_>
          <internalNodes>
            1 2 194 3.4973353147506714e-002 0 -1 2
            2.1164260804653168e-002 -2 -3 41 3.9178587496280670e-002</internalNodes>
          <leafValues>
            1.3277323544025421e-001 -1.3448634743690491e-001
            -4.4714239239692688e-001 2.9815250635147095e-001</leafValues></_>
        <_>
          <internalNodes>
            1 2 325 2.2121392190456390e-002 0 -1 8
            2.9674969613552094e-002 -2 -3 301 1.9843425601720810e-002</internalNodes>
          <leafValues>
            -4.3699383735656738e-002 -5.4325085878372192e-001
            -4.4017863273620605e-001 9.6192434430122375e-002</leafValues></_>
        <_>
          <internalNodes>
            1 2 100 5.9566333889961243e-002 0 -1 59
            3.4036353230476379e-002 -2 -3 55 2.2214146330952644e-002</internalNodes>
          <leafValues>
            -1.3433474302291870e-001 1.5922540426254272e-001
            -4.2471945285797119e-001 3.5228532552719116e-001</leafValues></_>
        <_>
          <internalNodes>
            1 2 335 3.2035622745752335e-002 0 -1 248
            4.4743679463863373e-002 -2 -3 23 2.6699859648942947e-002</internalNodes>
          <leafValues>
            7.8346893191337585e-002 -5.2643102407455444e-001
            -9.9943079054355621e-002 -7.7544057369232178e-001</leafValues></_>
        <_>
          <internalNodes>
            1 2 54 5.2714254707098007e-002 0 -1 156
            1.1858898214995861e-002 -2 -3 19 3.7738844752311707e-002</internalNodes>
          <leafValues>
            -3.2773369550704956e-001 4.4436674565076828e-002
            -1.0824026167392731e-001 -8.1512856483459473e-001</leafValues></_>
        <_>
          <internalNodes>
            1 2 211 4.9675729125738144e-002 0 -1 358
            1.1476241052150726e-002 -2 -3 76 2.9707945883274078e-002</internalNodes>
          <leafValues>
            2.1494165062904358e-001 -1.7500659823417664e-001
            2.8480020165443420e-001 -1.5669046342372894e-001</leafValues></_>
        <_>
          <internalNodes>
            1 2 204 6.4999824389815331e-003 0 -1 233
            4.6486817300319672e-002 -2 -3 36 6.2000779435038567e-003</internalNodes>
          <leafValues>
            -4.3943127989768982e-001 2.6857066154479980e-001
            -3.0282148718833923e-001 7.0201918482780457e-002</leafValues></_>
        <_>
          <internalNodes>
            1 2 50 6.1662424355745316e-002 0 -1 57
            2.2286763414740562e-002 -2 -3 245 2.7325006201863289e-002</internalNodes>
          <leafValues>
            -2.1586717665195465e-001 3.0388692393898964e-002
            7.9243910312652588e-001 -1.9183860719203949e-001</leafValues></_>
        <_>
          <internalNodes>
            1 2 44 4.9357991665601730e-002 0 -1 62
            4.5053668320178986e-002 -2 -3 62 2.2237766534090042e-002</internalNodes>
          <leafValues>
            -9.6664592623710632e-002 3.3779895305633545e-001
            4.2989435791969299e-001 -4.2651623487472534e-002</leafValues></_>
        <_>
          <internalNodes>
            1 2 296 8.5947647690773010e-002 0 -1 33
            5.8833430521190166e-003 -2 -3 111 5.2824206650257111e-002</internalNodes>
          <leafValues>
            -3.3825007081031799e-001 4.8836499452590942e-002
            -8.1013393402099609e-001 6.4539575576782227e-001</leafValues></_>
        <_>
          <internalNodes>
            1 2 307 3.4000247716903687e-002 0 -1 278
            1.2335402891039848e-002 -2 -3 92 4.6187166124582291e-002</internalNodes>
          <leafValues>
            2.3324573040008545e-001 -2.0695726573467255e-001
            1.5646119415760040e-001 -2.4451547861099243e-001</leafValues></_>
        <_>
          <internalNodes>
            1 2 1 4.5844409614801407e-002 0 -1 326
            2.6662696152925491e-002 -2 -3 76 7.6104276813566685e-003</internalNodes>
          <leafValues>
            -8.2988746464252472e-002 1.3108107447624207e-001
            5.8119189739227295e-001 -6.1704701185226440e-001</leafValues></_>
        <_>
          <internalNodes>
            1 2 83 6.8550348281860352e-002 0 -1 49
            6.6177276894450188e-003 -2 -3 138 1.4874985441565514e-002</internalNodes>
          <leafValues>
            4.0250626206398010e-001 -1.1611600406467915e-002
            1.1463981121778488e-001 -7.1016913652420044e-001</leafValues></_>
        <_>
          <internalNodes>
            1 2 233 8.9476674795150757e-002 0 -1 101
            7.9542733728885651e-002 -2 -3 335 2.3766363039612770e-002</internalNodes>
          <leafValues>
            2.8337715193629265e-002 -6.9627672433853149e-001
            -8.0898630619049072e-001 2.7641430497169495e-001</leafValues></_>
        <_>
          <internalNodes>
            1 2 275 3.6661375313997269e-002 0 -1 22
            1.7917068675160408e-002 -2 -3 20 5.2635230123996735e-002</internalNodes>
          <leafValues>
            -2.2990414500236511e-001 8.3115532994270325e-002
            -3.6882436275482178e-001 2.6396355032920837e-001</leafValues></_>
        <_>
          <internalNodes>
            1 2 232 1.9387673586606979e-002 0 -1 251
            9.0128341689705849e-003 -2 -3 345 4.2650148272514343e-002</internalNodes>
          <leafValues>
            -2.5977823138237000e-001 1.3659629225730896e-001
            -2.6694150641560555e-002 -4.5741879940032959e-001</leafValues></_>
        <_>
          <internalNodes>
            1 2 315 4.1157245635986328e-002 0 -1 101
            2.7916999533772469e-002 -2 -3 116 3.3612146973609924e-002</internalNodes>
          <leafValues>
            -9.2703580856323242e-002 1.1517945677042007e-001
            -6.4285522699356079e-001 8.0646224319934845e-002</leafValues></_>
        <_>
          <internalNodes>
            1 2 227 1.5153184533119202e-002 0 -1 193
            2.1118110045790672e-002 -2 -3 182 3.5733975470066071e-002</internalNodes>
          <leafValues>
            -3.4125599265098572e-001 2.0392233133316040e-001
            -2.1361170709133148e-001 1.3843938708305359e-001</leafValues></_>
        <_>
          <internalNodes>
            1 2 229 2.1063361316919327e-002 0 -1 136
            2.1782390773296356e-002 -2 -3 226 2.3614812642335892e-002</internalNodes>
          <leafValues>
            5.0913614034652710e-001 -1.4127540588378906e-001
            4.4617578387260437e-002 -3.0424311757087708e-001</leafValues></_>
        <_>
          <internalNodes>
            1 2 199 4.6366766095161438e-002 0 -1 357
            9.7815264016389847e-003 -2 -3 73 2.1698139607906342e-002</internalNodes>
          <leafValues>
            1.6636282205581665e-001 -1.1694973707199097e-001
            4.5756301283836365e-001 -1.5735884010791779e-001</leafValues></_>
        <_>
          <internalNodes>
            1 2 140 1.0532381013035774e-002 0 -1 359
            1.1973232030868530e-002 -2 -3 53 3.8255978375673294e-002</internalNodes>
          <leafValues>
            -8.0491077899932861e-001 -9.3563847243785858e-002
            1.3069075345993042e-001 -1.8873545527458191e-001</leafValues></_>
        <_>
          <internalNodes>
            1 2 81 1.2574745342135429e-002 0 -1 46
            3.3722046762704849e-002 -2 -3 260 1.3339145109057426e-002</internalNodes>
          <leafValues>
            -4.0571832656860352e-001 3.9806768298149109e-002
            -3.9465031027793884e-001 7.8678309917449951e-002</leafValues></_>
        <_>
          <internalNodes>
            1 2 21 1.2307330965995789e-002 0 -1 112
            1.5008199959993362e-002 -2 -3 24 4.3324250727891922e-003</internalNodes>
          <leafValues>
            2.7990192174911499e-001 -5.9302699565887451e-001
            3.1255471706390381e-001 -1.9640661776065826e-002</leafValues></_></weakClassifiers></_>
    <!-- stage 5 -->
    <_>
      <maxWeakCount>78</maxWeakCount>
      <stageThreshold>-1.2573394775390625e+000</stageThreshold>
      <weakClassifiers>
        <_>
          <internalNodes>
            1 2 46 3.3613435924053192e-002 0 -1 17
            4.7326624393463135e-002 -2 -3 44 4.4056110084056854e-002</internalNodes>
          <leafValues>
            -4.6415678225457668e-003 5.1618772745132446e-001
            5.2525556087493896e-001 9.2560195922851563e-001</leafValues></_>
        <_>
          <internalNodes>
            1 2 246 3.4669160842895508e-002 0 -1 79
            1.6809623688459396e-002 -2 -3 100 3.3209852874279022e-002</internalNodes>
          <leafValues>
            1.2469508498907089e-001 -4.5547977089881897e-001
            -5.2349548786878586e-002 7.0217996835708618e-001</leafValues></_>
        <_>
          <internalNodes>
            1 2 6 4.0553830564022064e-002 0 -1 192
            3.3588007092475891e-002 -2 -3 32 3.0424896627664566e-002</internalNodes>
          <leafValues>
            -4.8635858297348022e-001 3.6776438355445862e-002
            2.0445719361305237e-002 8.0514246225357056e-001</leafValues></_>
        <_>
          <internalNodes>
            1 2 19 3.0736155807971954e-002 0 -1 56
            4.2122155427932739e-002 -2 -3 84 2.2119151428341866e-002</internalNodes>
          <leafValues>
            -5.0718683004379272e-001 1.3180431909859180e-002
            -2.7228659391403198e-001 4.0384471416473389e-001</leafValues></_>
        <_>
          <internalNodes>
            1 2 301 4.4691823422908783e-002 0 -1 33
            2.5896470993757248e-002 -2 -3 224 2.0390059798955917e-002</internalNodes>
          <leafValues>
            -5.0115144252777100e-001 -2.1553980186581612e-002
            -3.8076511025428772e-001 4.7020846605300903e-001</leafValues></_>
        <_>
          <internalNodes>
            1 2 273 2.9310368001461029e-002 0 -1 149
            2.4123378098011017e-002 -2 -3 44 2.0007386803627014e-002</internalNodes>
          <leafValues>
            -5.4310315847396851e-001 -2.0824205875396729e-001
            -3.0609241127967834e-001 2.8678077459335327e-001</leafValues></_>
        <_>
          <internalNodes>
            1 2 211 3.5352334380149841e-002 0 -1 100
            6.1066962778568268e-002 -2 -3 204 2.5620698928833008e-002</internalNodes>
          <leafValues>
            -3.7474802136421204e-001 1.9583303481340408e-002
            -9.9707894027233124e-002 3.5125359892845154e-001</leafValues></_>
        <_>
          <internalNodes>
            1 2 282 1.3851841911673546e-002 0 -1 224
            4.2845830321311951e-002 -2 -3 307 3.5231143236160278e-002</internalNodes>
          <leafValues>
            -6.9893711805343628e-001 -2.1205444633960724e-001
            -1.5307678282260895e-001 1.8727900087833405e-001</leafValues></_>
        <_>
          <internalNodes>
            1 2 264 1.4638643711805344e-002 0 -1 253
            6.4800614491105080e-003 -2 -3 32 3.8528405129909515e-002</internalNodes>
          <leafValues>
            1.4076438546180725e-001 -7.0375257730484009e-001
            -6.7353308200836182e-002 2.9323562979698181e-001</leafValues></_>
        <_>
          <internalNodes>
            1 2 305 1.3463694602251053e-002 0 -1 216
            1.9787330180406570e-002 -2 -3 339 1.7022009938955307e-002</internalNodes>
          <leafValues>
            -6.5907555818557739e-001 -5.7794362306594849e-002
            2.0034754276275635e-001 -1.6033715009689331e-001</leafValues></_>
        <_>
          <internalNodes>
            1 2 5 1.3930521905422211e-002 0 -1 164
            1.7410144209861755e-002 -2 -3 353 4.4544566422700882e-002</internalNodes>
          <leafValues>
            -6.1230617761611938e-001 -1.3022242486476898e-001
            1.5255361795425415e-001 -4.9783584475517273e-001</leafValues></_>
        <_>
          <internalNodes>
            1 2 248 1.3558885082602501e-002 0 -1 244
            8.6954832077026367e-003 -2 -3 162 1.9448734819889069e-002</internalNodes>
          <leafValues>
            -3.5848599672317505e-001 2.3924694955348969e-001
            -4.5964947342872620e-001 -5.9273913502693176e-002</leafValues></_>
        <_>
          <internalNodes>
            1 2 17 7.7340006828308105e-002 0 -1 191
            3.3884633332490921e-002 -2 -3 262 2.9825801029801369e-002</internalNodes>
          <leafValues>
            6.5551223233342171e-003 -4.5028078556060791e-001
            -3.4013822674751282e-001 6.3259428739547729e-001</leafValues></_>
        <_>
          <internalNodes>
            1 2 343 1.4464830979704857e-002 0 -1 343
            1.1669104918837547e-002 -2 -3 85 2.2589169442653656e-002</internalNodes>
          <leafValues>
            -8.6891329288482666e-001 -4.2142924666404724e-001
            -2.2097043693065643e-001 1.1754756420850754e-001</leafValues></_>
        <_>
          <internalNodes>
            1 2 3 7.6753174653276801e-005 0 -1 143
            6.1273671686649323e-002 -2 -3 38 2.5643952190876007e-002</internalNodes>
          <leafValues>
            -8.0867493152618408e-001 2.7214631438255310e-001
            9.3089342117309570e-002 -2.5924828648567200e-001</leafValues></_>
        <_>
          <internalNodes>
            1 2 308 1.4829670079052448e-002 0 -1 50
            6.5154723823070526e-002 -2 -3 336 3.0122440308332443e-002</internalNodes>
          <leafValues>
            -6.5453267097473145e-001 4.6445196866989136e-001
            -1.2964427471160889e-001 1.4645627140998840e-001</leafValues></_>
        <_>
          <internalNodes>
            1 2 181 1.9510131329298019e-002 0 -1 338
            1.5586183406412601e-002 -2 -3 25 2.8245747089385986e-002</internalNodes>
          <leafValues>
            4.8237550072371960e-003 -3.8441562652587891e-001
            1.3230012357234955e-001 -2.7935129404067993e-001</leafValues></_>
        <_>
          <internalNodes>
            1 2 242 5.3835092112421989e-003 0 -1 140
            2.3286309093236923e-002 -2 -3 210 2.6174467056989670e-002</internalNodes>
          <leafValues>
            -7.4090892076492310e-001 -8.1704072654247284e-002
            -1.7043823003768921e-001 1.2615080177783966e-001</leafValues></_>
        <_>
          <internalNodes>
            1 2 92 6.1621040105819702e-002 0 -1 30
            1.2024028226733208e-002 -2 -3 312 2.6996981352567673e-002</internalNodes>
          <leafValues>
            -3.9925438165664673e-001 6.4401827752590179e-002
            -6.8892765045166016e-001 1.5853939950466156e-001</leafValues></_>
        <_>
          <internalNodes>
            1 2 152 7.5011923909187317e-002 0 -1 256
            3.0919004231691360e-002 -2 -3 30 1.2112090364098549e-002</internalNodes>
          <leafValues>
            1.0866259038448334e-001 -1.4168392121791840e-001
            3.2287994027137756e-001 -8.2078593969345093e-001</leafValues></_>
        <_>
          <internalNodes>
            1 2 246 3.4722760319709778e-002 0 -1 188
            1.8459338694810867e-002 -2 -3 229 5.2073299884796143e-002</internalNodes>
          <leafValues>
            -2.1731650829315186e-001 2.1612474322319031e-001
            -3.2357415556907654e-001 1.0267639160156250e-001</leafValues></_>
        <_>
          <internalNodes>
            1 2 1 1.7633162438869476e-002 0 -1 323
            5.9378072619438171e-002 -2 -3 103 2.9964953660964966e-002</internalNodes>
          <leafValues>
            1.2074477970600128e-001 -5.1291763782501221e-001
            2.0419696345925331e-002 -4.0172424912452698e-001</leafValues></_>
        <_>
          <internalNodes>
            1 2 354 9.4030387699604034e-003 0 -1 355
            5.7063933461904526e-002 -2 -3 145 3.8924708962440491e-002</internalNodes>
          <leafValues>
            -7.6933354139328003e-001 1.7521098256111145e-001
            -8.4905423223972321e-002 1.4865122735500336e-001</leafValues></_>
        <_>
          <internalNodes>
            1 2 86 1.0359978303313255e-002 0 -1 192
            3.5059951245784760e-002 -2 -3 210 4.9123492091894150e-002</internalNodes>
          <leafValues>
            -1.9445581361651421e-002 -5.0569015741348267e-001
            -2.7924142777919769e-002 2.3593117296695709e-001</leafValues></_>
        <_>
          <internalNodes>
            1 2 117 6.4299441874027252e-002 0 -1 227
            4.0732048451900482e-002 -2 -3 185 1.9515320658683777e-002</internalNodes>
          <leafValues>
            4.6064492315053940e-002 -3.6686220765113831e-001
            -9.2829900979995728e-001 -3.3074682950973511e-001</leafValues></_>
        <_>
          <internalNodes>
            1 2 163 6.2111444771289825e-002 0 -1 247
            1.5625443309545517e-002 -2 -3 78 1.6678316518664360e-002</internalNodes>
          <leafValues>
            2.9126095771789551e-001 -1.3195450603961945e-001
            3.6202526092529297e-001 -1.2846939265727997e-001</leafValues></_>
        <_>
          <internalNodes>
            1 2 44 9.3829929828643799e-003 0 -1 43
            4.9700373783707619e-003 -2 -3 346 1.8079999834299088e-002</internalNodes>
          <leafValues>
            -9.6960484981536865e-001 -1.9367660582065582e-001
            -3.5014802217483521e-001 6.8049840629100800e-002</leafValues></_>
        <_>
          <internalNodes>
            1 2 97 3.0671959742903709e-002 0 -1 336
            1.3883206993341446e-002 -2 -3 284 1.9356921315193176e-002</internalNodes>
          <leafValues>
            -3.8788285851478577e-001 7.5870752334594727e-002
            -5.7064002752304077e-001 -7.5394488871097565e-002</leafValues></_>
        <_>
          <internalNodes>
            1 2 245 7.4283003807067871e-002 0 -1 106
            4.3711245059967041e-002 -2 -3 129 1.2558729946613312e-001</internalNodes>
          <leafValues>
            3.4863729029893875e-002 -4.9175012111663818e-001
            -7.3529547452926636e-001 1.</leafValues></_>
        <_>
          <internalNodes>
            1 2 22 9.8738037049770355e-003 0 -1 259
            4.0138915181159973e-002 -2 -3 24 8.2832332700490952e-003</internalNodes>
          <leafValues>
            -5.9647643566131592e-001 2.8109088540077209e-001
            1.8803067505359650e-001 -5.2705232053995132e-002</leafValues></_>
        <_>
          <internalNodes>
            1 2 33 5.9919506311416626e-003 0 -1 59
            1.5459952875971794e-002 -2 -3 298 2.3132972419261932e-002</internalNodes>
          <leafValues>
            -6.0765177011489868e-001 -5.2683375775814056e-002
            1.2793335318565369e-001 -8.3476424217224121e-002</leafValues></_>
        <_>
          <internalNodes>
            1 2 325 1.1303048580884933e-002 0 -1 146
            4.8395939171314240e-002 -2 -3 253 9.9404016509652138e-003</internalNodes>
          <leafValues>
            -5.4779016971588135e-001 8.3471101522445679e-001
            3.0705362558364868e-001 -2.7029948309063911e-002</leafValues></_>
        <_>
          <internalNodes>
            1 2 63 1.2068539857864380e-002 0 -1 17
            6.5135926008224487e-002 -2 -3 249 1.6868416219949722e-002</internalNodes>
          <leafValues>
            -3.7848046422004700e-001 1.6370336711406708e-001
            1.2640267610549927e-001 -9.8745465278625488e-002</leafValues></_>
        <_>
          <internalNodes>
            1 2 6 1.4008644036948681e-002 0 -1 352
            1.5226110816001892e-002 -2 -3 20 4.3993186205625534e-002</internalNodes>
          <leafValues>
            -4.8385298252105713e-001 -4.6422380954027176e-002
            -1.9921561703085899e-002 2.3902086913585663e-001</leafValues></_>
        <_>
          <internalNodes>
            1 2 232 2.1252021193504333e-002 0 -1 233
            1.2848708778619766e-002 -2 -3 323 2.7216527611017227e-002</internalNodes>
          <leafValues>
            -1.6136035323143005e-001 1.4668217301368713e-001
            -1.6170805320143700e-002 -3.9405810832977295e-001</leafValues></_>
        <_>
          <internalNodes>
            1 2 170 2.0990535616874695e-002 0 -1 291
            2.0828200504183769e-002 -2 -3 226 1.8841676414012909e-002</internalNodes>
          <leafValues>
            -4.0720644593238831e-001 1.4879153110086918e-002
            1.9809885323047638e-001 -1.0014270246028900e-001</leafValues></_>
        <_>
          <internalNodes>
            1 2 83 9.8201688379049301e-003 0 -1 332
            2.0588662475347519e-002 -2 -3 151 1.8137330189347267e-002</internalNodes>
          <leafValues>
            1.7961171269416809e-001 -5.6045919656753540e-001
            -9.1347798705101013e-002 1.3987328112125397e-001</leafValues></_>
        <_>
          <internalNodes>
            1 2 254 7.5444169342517853e-003 0 -1 264
            5.4534018039703369e-002 -2 -3 250 2.4190817028284073e-002</internalNodes>
          <leafValues>
            3.3291742205619812e-001 -6.3993126153945923e-001
            1.8081007525324821e-002 -2.4618855118751526e-001</leafValues></_>
        <_>
          <internalNodes>
            1 2 22 1.0294000059366226e-001 0 -1 155
            5.3779892623424530e-002 -2 -3 67 5.2752159535884857e-002</internalNodes>
          <leafValues>
            3.6539174616336823e-002 -4.7716522216796875e-001
            -8.9735853672027588e-001 1.2126509100198746e-001</leafValues></_>
        <_>
          <internalNodes>
            1 2 129 6.0914997011423111e-003 0 -1 128
            4.4029653072357178e-002 -2 -3 65 6.2112711369991302e-002</internalNodes>
          <leafValues>
            -6.7648160457611084e-001 6.1833381652832031e-001
            3.7898324429988861e-002 -3.6076122522354126e-001</leafValues></_>
        <_>
          <internalNodes>
            1 2 127 5.8295167982578278e-002 0 -1 262
            4.0910258889198303e-002 -2 -3 19 2.4686574935913086e-002</internalNodes>
          <leafValues>
            -1.1834777891635895e-001 1.7273522913455963e-001
            -2.5111591815948486e-001 3.3400475978851318e-001</leafValues></_>
        <_>
          <internalNodes>
            1 2 251 8.9245453476905823e-002 0 -1 230
            2.7729162946343422e-002 -2 -3 128 3.9967469871044159e-002</internalNodes>
          <leafValues>
            6.6473290324211121e-002 -1.7617040872573853e-001
            -8.9532154798507690e-001 4.6388216316699982e-002</leafValues></_>
        <_>
          <internalNodes>
            1 2 337 1.6655389219522476e-002 0 -1 10
            2.1004188805818558e-002 -2 -3 76 1.5457544475793839e-002</internalNodes>
          <leafValues>
            -8.8792598247528076e-001 -1.1534263938665390e-001
            1.7239324748516083e-001 -5.3222049027681351e-002</leafValues></_>
        <_>
          <internalNodes>
            1 2 355 1.9538599997758865e-002 0 -1 226
            1.1680280789732933e-002 -2 -3 208 1.5741527080535889e-002</internalNodes>
          <leafValues>
            -7.0157676935195923e-001 -8.6609371006488800e-002
            1.6228279471397400e-001 -5.7203870266675949e-002</leafValues></_>
        <_>
          <internalNodes>
            1 2 351 8.9945364743471146e-003 0 -1 214
            7.2440393269062042e-003 -2 -3 171 2.1458450704813004e-002</internalNodes>
          <leafValues>
            -6.4857244491577148e-001 -4.7174219042062759e-002
            1.4027491211891174e-001 -7.6820828020572662e-002</leafValues></_>
        <_>
          <internalNodes>
            1 2 248 3.2611833885312080e-003 0 -1 89
            1.6854206100106239e-002 -2 -3 164 1.2344604358077049e-002</internalNodes>
          <leafValues>
            -3.7900075316429138e-001 4.1683530807495117e-001
            -3.8415196537971497e-001 -2.2346244659274817e-003</leafValues></_>
        <_>
          <internalNodes>
            1 2 278 2.2184863686561584e-002 0 -1 296
            1.7580229789018631e-002 -2 -3 58 3.9569027721881866e-002</internalNodes>
          <leafValues>
            -3.5067927837371826e-001 1.6356979310512543e-001
            -2.4218966066837311e-001 9.9072948098182678e-002</leafValues></_>
        <_>
          <internalNodes>
            1 2 352 7.5634471140801907e-003 0 -1 306
            1.3988233171403408e-002 -2 -3 298 3.4233648329973221e-002</internalNodes>
          <leafValues>
            1.6191446781158447e-001 -5.7594949007034302e-001
            6.6549628973007202e-002 -1.9019059836864471e-001</leafValues></_>
        <_>
          <internalNodes>
            1 2 58 8.3041638135910034e-002 0 -1 214
            6.1825893819332123e-002 -2 -3 247 9.5689341425895691e-002</internalNodes>
          <leafValues>
            4.9963188357651234e-003 6.4369356632232666e-001
            -5.9972310066223145e-001 3.4215581417083740e-001</leafValues></_>
        <_>
          <internalNodes>
            1 2 11 5.6034293025732040e-002 0 -1 146
            6.7458279430866241e-002 -2 -3 284 9.2140194028615952e-003</internalNodes>
          <leafValues>
            3.4869182854890823e-002 -4.5815008878707886e-001
            4.3625211715698242e-001 -6.5499794483184814e-001</leafValues></_>
        <_>
          <internalNodes>
            1 2 23 1.1209415271878242e-002 0 -1 40
            5.5104270577430725e-003 -2 -3 8 6.0544423758983612e-002</internalNodes>
          <leafValues>
            -5.7937884330749512e-001 1.6880789399147034e-001
            -1.2163107842206955e-001 2.7692732214927673e-001</leafValues></_>
        <_>
          <internalNodes>
            1 2 32 1.5504864975810051e-002 0 -1 311
            3.3647783100605011e-002 -2 -3 152 5.9322390705347061e-002</internalNodes>
          <leafValues>
            -2.1959167718887329e-001 6.7121714353561401e-001
            7.9831808805465698e-002 -3.5470294952392578e-001</leafValues></_>
        <_>
          <internalNodes>
            1 2 78 7.6839667744934559e-003 0 -1 31
            3.5132043063640594e-002 -2 -3 223 3.3846325241029263e-003</internalNodes>
          <leafValues>
            -1.8828442692756653e-001 3.5472759604454041e-001
            -5.6293398141860962e-001 -2.0069357007741928e-002</leafValues></_>
        <_>
          <internalNodes>
            1 2 3 3.1385971233248711e-003 0 -1 49
            2.5097902864217758e-002 -2 -3 307 2.3406058549880981e-002</internalNodes>
          <leafValues>
            -1.5253569930791855e-002 -7.5634902715682983e-001
            -1.9779162108898163e-001 6.3176333904266357e-002</leafValues></_>
        <_>
          <internalNodes>
            1 2 264 4.3989975005388260e-002 0 -1 224
            4.1359543800354004e-002 -2 -3 21 7.4994541704654694e-002</internalNodes>
          <leafValues>
            -1.3158260285854340e-001 1.1815258860588074e-001
            2.4203908443450928e-001 -5.7005059719085693e-001</leafValues></_>
        <_>
          <internalNodes>
            1 2 161 1.9310090690851212e-002 0 -1 216
            7.9325865954160690e-003 -2 -3 340 1.9274305552244186e-002</internalNodes>
          <leafValues>
            -3.1261277198791504e-001 1.9984292984008789e-001
            5.3847454488277435e-002 -2.0495247840881348e-001</leafValues></_>
        <_>
          <internalNodes>
            1 2 317 2.8819952160120010e-002 0 -1 345
            3.6205369979143143e-002 -2 -3 8 2.6839535683393478e-002</internalNodes>
          <leafValues>
            1.8075503408908844e-001 -1.1840647459030151e-001
            6.1323300004005432e-002 -3.9349392056465149e-001</leafValues></_>
        <_>
          <internalNodes>
            1 2 354 2.2350210696458817e-002 0 -1 17
            4.6176411211490631e-002 -2 -3 227 1.6603732481598854e-002</internalNodes>
          <leafValues>
            -3.1733155250549316e-001 5.7108826935291290e-002
            1.4429287612438202e-001 -6.5222404897212982e-002</leafValues></_>
        <_>
          <internalNodes>
            1 2 145 1.9026245921850204e-002 0 -1 77
            1.5071803703904152e-002 -2 -3 12 9.0834144502878189e-003</internalNodes>
          <leafValues>
            8.4229752421379089e-002 -4.7384479641914368e-001
            -2.0246788859367371e-001 1.0358342528343201e-001</leafValues></_>
        <_>
          <internalNodes>
            1 2 21 9.0637467801570892e-003 0 -1 128
            2.6638962328433990e-002 -2 -3 60 2.8541058301925659e-002</internalNodes>
          <leafValues>
            4.9110066145658493e-002 -7.4925762414932251e-001
            -5.0548087805509567e-002 1.5494967997074127e-001</leafValues></_>
        <_>
          <internalNodes>
            1 2 119 2.7253735810518265e-002 0 -1 30
            4.9111224710941315e-002 -2 -3 186 1.1817296966910362e-002</internalNodes>
          <leafValues>
            -1.9358745217323303e-001 1.8439166247844696e-001
            -1.8555228412151337e-001 1.9223466515541077e-001</leafValues></_>
        <_>
          <internalNodes>
            1 2 329 7.9326182603836060e-002 0 -1 280
            4.8782441765069962e-002 -2 -3 257 6.3453800976276398e-002</internalNodes>
          <leafValues>
            -4.6792250126600266e-002 1.7855112254619598e-001 -1.
            9.9673110246658325e-001</leafValues></_>
        <_>
          <internalNodes>
            1 2 329 2.6666633784770966e-002 0 -1 148
            4.3214216828346252e-002 -2 -3 225 2.2720661014318466e-002</internalNodes>
          <leafValues>
            -1.5362432599067688e-001 1.6518518328666687e-001
            -1.8393985927104950e-002 3.3286365866661072e-001</leafValues></_>
        <_>
          <internalNodes>
            1 2 255 1.5921346843242645e-002 0 -1 278
            3.8837701082229614e-002 -2 -3 350 5.0987899303436279e-002</internalNodes>
          <leafValues>
            1.8361004069447517e-002 5.0175851583480835e-001
            -2.3983718827366829e-002 -6.2849825620651245e-001</leafValues></_>
        <_>
          <internalNodes>
            1 2 147 1.4231450855731964e-002 0 -1 287
            4.5194022357463837e-002 -2 -3 192 1.8704440444707870e-002</internalNodes>
          <leafValues>
            -3.6797916889190674e-001 3.0269256234169006e-001
            -1.6545663774013519e-001 8.9639373123645782e-002</leafValues></_>
        <_>
          <internalNodes>
            1 2 162 5.3492886945605278e-003 0 -1 253
            2.5969028472900391e-002 -2 -3 308 2.7247313410043716e-002</internalNodes>
          <leafValues>
            -8.3604967594146729e-001 6.7976035177707672e-002
            -1.4180345833301544e-001 7.5470246374607086e-002</leafValues></_>
        <_>
          <internalNodes>
            1 2 81 3.6956891417503357e-002 0 -1 211
            5.8730930089950562e-002 -2 -3 17 5.7001437991857529e-002</internalNodes>
          <leafValues>
            -1.3080604374408722e-001 1.1966145783662796e-001
            2.1995659917593002e-002 4.7113820910453796e-001</leafValues></_>
        <_>
          <internalNodes>
            1 2 244 4.0975950658321381e-002 0 -1 42
            3.5955879837274551e-002 -2 -3 229 1.8728096038103104e-002</internalNodes>
          <leafValues>
            -1.1330181360244751e-001 1.7346298694610596e-001
            5.7001560926437378e-001 -4.9445233307778835e-003</leafValues></_>
        <_>
          <internalNodes>
            1 2 337 2.8516614809632301e-002 0 -1 139
            7.7362835407257080e-002 -2 -3 301 4.5267373323440552e-002</internalNodes>
          <leafValues>
            -2.3083558678627014e-001 5.8991134166717529e-001
            1.6117525100708008e-001 -7.1397043764591217e-002</leafValues></_>
        <_>
          <internalNodes>
            1 2 187 1.3804636895656586e-002 0 -1 350
            4.3226804584264755e-002 -2 -3 334 1.1724241077899933e-002</internalNodes>
          <leafValues>
            -2.0521207153797150e-001 2.4162672460079193e-001
            -1.7497210204601288e-001 1.1189848929643631e-001</leafValues></_>
        <_>
          <internalNodes>
            1 2 57 1.0440262965857983e-002 0 -1 252
            2.8684966266155243e-002 -2 -3 272 6.1343319714069366e-002</internalNodes>
          <leafValues>
            -6.8730890750885010e-001 2.5347888469696045e-001
            3.9219476282596588e-002 -3.5935872793197632e-001</leafValues></_>
        <_>
          <internalNodes>
            1 2 297 3.4802373498678207e-002 0 -1 195
            1.5706434845924377e-002 -2 -3 291 2.6868769899010658e-002</internalNodes>
          <leafValues>
            1.1776061356067657e-001 -8.2724645733833313e-002
            -4.5087081193923950e-001 1.2805946171283722e-001</leafValues></_>
        <_>
          <internalNodes>
            1 2 359 7.0459648966789246e-002 0 -1 233
            3.0135212466120720e-002 -2 -3 180 2.8309593908488750e-003</internalNodes>
          <leafValues>
            -7.0050634443759918e-002 1.0937013477087021e-001
            8.3553969860076904e-001 -8.4375447034835815e-001</leafValues></_>
        <_>
          <internalNodes>
            1 2 163 2.1381910890340805e-002 0 -1 228
            2.0898431539535522e-002 -2 -3 23 1.9117383286356926e-002</internalNodes>
          <leafValues>
            1.2411246448755264e-001 -4.4821771979331970e-001
            1.2825608253479004e-001 -8.6481288075447083e-002</leafValues></_>
        <_>
          <internalNodes>
            1 2 136 9.2392442747950554e-003 0 -1 50
            1.8070498481392860e-002 -2 -3 252 2.1353360265493393e-002</internalNodes>
          <leafValues>
            -2.5556090474128723e-001 4.5832809805870056e-001
            6.2693350017070770e-002 -1.5374293923377991e-001</leafValues></_>
        <_>
          <internalNodes>
            1 2 336 2.4032082408666611e-002 0 -1 193
            5.6326426565647125e-002 -2 -3 78 2.4863705039024353e-002</internalNodes>
          <leafValues>
            -2.6704069972038269e-001 2.4525280296802521e-001
            1.3222123682498932e-001 -1.2576811015605927e-001</leafValues></_>
        <_>
          <internalNodes>
            1 2 285 2.8551913797855377e-002 0 -1 71
            4.9814544618129730e-002 -2 -3 300 6.2717810273170471e-002</internalNodes>
          <leafValues>
            -3.4874811768531799e-002 -4.6547374129295349e-001
            1.7598272860050201e-001 -7.0166558027267456e-001</leafValues></_>
        <_>
          <internalNodes>
            1 2 320 5.6723557412624359e-002 0 -1 181
            3.4820608794689178e-002 -2 -3 140 2.4929217994213104e-002</internalNodes>
          <leafValues>
            -5.7233087718486786e-002 1.2825386226177216e-001 1.
            -9.3720996379852295e-001</leafValues></_></weakClassifiers></_>
    <!-- stage 6 -->
    <_>
      <maxWeakCount>110</maxWeakCount>
      <stageThreshold>-1.2459195852279663e+000</stageThreshold>
      <weakClassifiers>
        <_>
          <internalNodes>
            1 2 44 3.6375291645526886e-002 0 -1 211
            3.0321812257170677e-002 -2 -3 20 2.6485456153750420e-002</internalNodes>
          <leafValues>
            -2.9002010822296143e-001 3.4595409035682678e-001
            3.9060488343238831e-001 9.0683585405349731e-001</leafValues></_>
        <_>
          <internalNodes>
            1 2 109 4.2775765061378479e-002 0 -1 163
            4.1074939072132111e-002 -2 -3 254 2.3888166993856430e-002</internalNodes>
          <leafValues>
            -4.4749566912651062e-001 1.2877458333969116e-001
            7.6054751873016357e-001 -2.8296399861574173e-002</leafValues></_>
        <_>
          <internalNodes>
            1 2 229 5.7556957006454468e-002 0 -1 348
            3.0765101313591003e-002 -2 -3 6 3.0632238835096359e-002</internalNodes>
          <leafValues>
            -4.2506387829780579e-001 1.1963392049074173e-001
            1.0244449228048325e-001 7.3132115602493286e-001</leafValues></_>
        <_>
          <internalNodes>
            1 2 20 4.5313358306884766e-002 0 -1 55
            3.3147484064102173e-002 -2 -3 44 5.3481288254261017e-002</internalNodes>
          <leafValues>
            -4.2463520169258118e-001 6.1171296983957291e-002
            8.2266278564929962e-002 6.9439935684204102e-001</leafValues></_>
        <_>
          <internalNodes>
            1 2 210 3.9937637746334076e-002 0 -1 253
            1.5526185743510723e-002 -2 -3 341 1.9950389862060547e-002</internalNodes>
          <leafValues>
            4.1419699788093567e-002 -4.0975704789161682e-001
            -2.9008346796035767e-001 3.2310518622398376e-001</leafValues></_>
        <_>
          <internalNodes>
            1 2 301 3.4278962761163712e-002 0 -1 31
            3.4986082464456558e-002 -2 -3 194 2.6571560651063919e-002</internalNodes>
          <leafValues>
            -5.4331320524215698e-001 -1.5720851719379425e-001
            2.3010919988155365e-001 -3.2986587285995483e-001</leafValues></_>
        <_>
          <internalNodes>
            1 2 64 2.9617067426443100e-002 0 -1 101
            2.6035536080598831e-002 -2 -3 109 2.1953932940959930e-002</internalNodes>
          <leafValues>
            -5.7328528165817261e-001 -7.3201470077037811e-002
            -3.4126803278923035e-001 2.3185458779335022e-001</leafValues></_>
        <_>
          <internalNodes>
            1 2 32 2.3530855774879456e-002 0 -1 58
            2.3881282657384872e-002 -2 -3 44 1.2661485001444817e-002</internalNodes>
          <leafValues>
            -5.4393732547760010e-001 -9.9611707031726837e-002
            -4.1722631454467773e-001 1.8513931334018707e-001</leafValues></_>
        <_>
          <internalNodes>
            1 2 162 2.4609046056866646e-002 0 -1 107
            1.8563441932201385e-002 -2 -3 300 2.5694001466035843e-002</internalNodes>
          <leafValues>
            -4.6838271617889404e-001 -5.7874418795108795e-002
            -2.2009950876235962e-001 2.1525056660175323e-001</leafValues></_>
        <_>
          <internalNodes>
            1 2 244 2.9454179108142853e-002 0 -1 240
            3.7533201277256012e-002 -2 -3 249 2.3354372009634972e-002</internalNodes>
          <leafValues>
            -2.3993946611881256e-001 1.6602988541126251e-001
            2.6016944646835327e-001 -2.6931497454643250e-001</leafValues></_>
        <_>
          <internalNodes>
            1 2 21 2.7735114097595215e-002 0 -1 15
            4.5809932053089142e-002 -2 -3 146 1.3755965977907181e-002</internalNodes>
          <leafValues>
            -3.2252970337867737e-001 2.4640808999538422e-001
            -2.9046735167503357e-001 1.5515241026878357e-001</leafValues></_>
        <_>
          <internalNodes>
            1 2 248 4.1197083890438080e-002 0 -1 227
            3.7832517176866531e-002 -2 -3 41 3.4926921129226685e-002</internalNodes>
          <leafValues>
            6.9100998342037201e-002 -3.9445510506629944e-001
            -7.1464109420776367e-001 -1.5254572033882141e-001</leafValues></_>
        <_>
          <internalNodes>
            1 2 195 3.0232321470975876e-002 0 -1 315
            3.5291433334350586e-002 -2 -3 293 3.0548062175512314e-002</internalNodes>
          <leafValues>
            9.1014377772808075e-002 -3.2589885592460632e-001
            -4.6583956480026245e-001 9.4197928905487061e-002</leafValues></_>
        <_>
          <internalNodes>
            1 2 5 2.6984214782714844e-002 0 -1 269
            1.6890801489353180e-002 -2 -3 19 2.1271064877510071e-002</internalNodes>
          <leafValues>
            -3.9139816164970398e-001 -3.6056306213140488e-002
            -1.2917885184288025e-001 2.6157933473587036e-001</leafValues></_>
        <_>
          <internalNodes>
            1 2 78 1.3281969353556633e-002 0 -1 19
            4.7771736979484558e-002 -2 -3 18 3.5023801028728485e-002</internalNodes>
          <leafValues>
            2.9185258317738771e-003 3.3806943893432617e-001
            -3.4733153879642487e-002 -4.2733845114707947e-001</leafValues></_>
        <_>
          <internalNodes>
            1 2 37 3.2286383211612701e-002 0 -1 181
            2.5422241538763046e-002 -2 -3 152 2.1626986563205719e-002</internalNodes>
          <leafValues>
            -9.5296494662761688e-002 1.5125212073326111e-001
            -6.1307883262634277e-001 -9.4075150787830353e-002</leafValues></_>
        <_>
          <internalNodes>
            1 2 190 3.3072810620069504e-002 0 -1 148
            9.6446909010410309e-003 -2 -3 280 5.4970473051071167e-002</internalNodes>
          <leafValues>
            -5.3326892852783203e-001 7.3426105082035065e-002
            -4.7447660565376282e-001 2.5034645199775696e-001</leafValues></_>
        <_>
          <internalNodes>
            1 2 168 6.0437871143221855e-003 0 -1 106
            6.9922320544719696e-003 -2 -3 248 1.9173715263605118e-002</internalNodes>
          <leafValues>
            -6.8048489093780518e-001 -1.0389855504035950e-001
            1.1645130813121796e-001 -1.2460390478372574e-001</leafValues></_>
        <_>
          <internalNodes>
            1 2 182 2.0249027758836746e-002 0 -1 203
            2.2265726700425148e-002 -2 -3 23 1.9121594727039337e-002</internalNodes>
          <leafValues>
            -3.7900143861770630e-001 8.7267132475972176e-003
            1.8188989162445068e-001 -1.3081228733062744e-001</leafValues></_>
        <_>
          <internalNodes>
            1 2 211 4.9926437437534332e-002 0 -1 17
            4.6705201268196106e-002 -2 -3 76 2.9923014342784882e-002</internalNodes>
          <leafValues>
            -2.0738925039768219e-001 8.7268553674221039e-002
            2.7057650685310364e-001 -1.4883518218994141e-001</leafValues></_>
        <_>
          <internalNodes>
            1 2 233 6.0932384803891182e-003 0 -1 225
            9.8541770130395889e-003 -2 -3 192 4.4845521450042725e-002</internalNodes>
          <leafValues>
            -5.8944809436798096e-001 3.9377149194478989e-002
            -4.7190964221954346e-002 1.7748814821243286e-001</leafValues></_>
        <_>
          <internalNodes>
            1 2 133 4.1748501360416412e-002 0 -1 97
            3.0092536471784115e-003 -2 -3 6 8.1535793840885162e-002</internalNodes>
          <leafValues>
            -3.7540641427040100e-001 4.6917337924242020e-002
            -4.9220091104507446e-001 8.9994913339614868e-001</leafValues></_>
        <_>
          <internalNodes>
            1 2 149 1.3800153508782387e-002 0 -1 310
            2.8618130832910538e-002 -2 -3 127 4.1736938059329987e-002</internalNodes>
          <leafValues>
            -4.4851025938987732e-001 -3.0498210340738297e-002
            -2.8109971433877945e-002 1.7712907493114471e-001</leafValues></_>
        <_>
          <internalNodes>
            1 2 32 4.9763187766075134e-002 0 -1 176
            4.7802701592445374e-002 -2 -3 56 3.8922250270843506e-002</internalNodes>
          <leafValues>
            -1.4984497800469398e-002 -4.4943425059318542e-001
            -1.0376362502574921e-001 5.5960643291473389e-001</leafValues></_>
        <_>
          <internalNodes>
            1 2 209 5.6920945644378662e-002 0 -1 231
            1.9973123446106911e-002 -2 -3 140 4.4053867459297180e-002</internalNodes>
          <leafValues>
            9.4463020563125610e-002 -1.2499031424522400e-001
            -5.7621097564697266e-001 2.7312928438186646e-001</leafValues></_>
        <_>
          <internalNodes>
            1 2 251 4.1384077630937099e-003 0 -1 244
            1.3806804083287716e-002 -2 -3 81 1.2596267275512218e-002</internalNodes>
          <leafValues>
            -7.3584979772567749e-001 -3.1428281217813492e-002
            -1.8280099332332611e-001 6.8555854260921478e-002</leafValues></_>
        <_>
          <internalNodes>
            1 2 129 1.0935988277196884e-002 0 -1 286
            1.1351342312991619e-002 -2 -3 333 4.7155316919088364e-002</internalNodes>
          <leafValues>
            1.2082131206989288e-001 -5.0388813018798828e-001
            3.6648038774728775e-002 -6.0020440816879272e-001</leafValues></_>
        <_>
          <internalNodes>
            1 2 213 1.4582050032913685e-002 0 -1 210
            1.4793826267123222e-002 -2 -3 348 1.8187148496508598e-002</internalNodes>
          <leafValues>
            -2.8631415963172913e-001 1.2960039079189301e-001
            -3.7900221347808838e-001 7.6750111766159534e-003</leafValues></_>
        <_>
          <internalNodes>
            1 2 337 1.6454212367534637e-002 0 -1 201
            8.5944131016731262e-002 -2 -3 229 1.3990267179906368e-002</internalNodes>
          <leafValues>
            -6.3791590929031372e-001 7.4312132596969604e-001
            3.6092773079872131e-001 -2.1656293421983719e-002</leafValues></_>
        <_>
          <internalNodes>
            1 2 99 4.6246245503425598e-002 0 -1 166
            4.8552997410297394e-002 -2 -3 55 2.2102376446127892e-002</internalNodes>
          <leafValues>
            8.5422378033399582e-003 -3.1731221079826355e-001
            -2.7162811160087585e-001 3.6306264996528625e-001</leafValues></_>
        <_>
          <internalNodes>
            1 2 247 6.9399848580360413e-002 0 -1 98
            3.4139625728130341e-002 -2 -3 228 2.9651585966348648e-002</internalNodes>
          <leafValues>
            2.1623458713293076e-002 -2.9144474864006042e-001
            -1.9395299255847931e-001 3.8943433761596680e-001</leafValues></_>
        <_>
          <internalNodes>
            1 2 191 2.0000576972961426e-002 0 -1 243
            1.1359708383679390e-002 -2 -3 208 2.4985898286104202e-002</internalNodes>
          <leafValues>
            -1.7274992167949677e-001 1.6060163080692291e-001
            1.3794765807688236e-002 -3.2005095481872559e-001</leafValues></_>
        <_>
          <internalNodes>
            1 2 0 1.9245304167270660e-002 0 -1 344
            2.7867000550031662e-002 -2 -3 85 4.8022083938121796e-002</internalNodes>
          <leafValues>
            -9.5764219760894775e-002 1.6743041574954987e-001
            -2.1489256620407104e-001 1.7206908762454987e-001</leafValues></_>
        <_>
          <internalNodes>
            1 2 14 7.5665101408958435e-002 0 -1 46
            3.2596609089523554e-003 -2 -3 73 2.9402293264865875e-002</internalNodes>
          <leafValues>
            -7.0325946807861328e-001 -3.8044745451770723e-004
            7.3349207639694214e-001 -1.</leafValues></_>
        <_>
          <internalNodes>
            1 2 17 8.9772209525108337e-002 0 -1 116
            6.2522098422050476e-002 -2 -3 55 1.6129946336150169e-002</internalNodes>
          <leafValues>
            -6.6841123625636101e-003 -5.0354439020156860e-001
            -6.6666615009307861e-001 4.6455463767051697e-001</leafValues></_>
        <_>
          <internalNodes>
            1 2 352 1.1350766755640507e-002 0 -1 245
            1.7145425081253052e-002 -2 -3 317 2.0951185375452042e-002</internalNodes>
          <leafValues>
            -4.7246491909027100e-001 -1.0386048816144466e-002
            1.6121058166027069e-001 -4.4546902179718018e-002</leafValues></_>
        <_>
          <internalNodes>
            1 2 302 4.3043106794357300e-002 0 -1 57
            1.7016388475894928e-002 -2 -3 293 7.3822468519210815e-002</internalNodes>
          <leafValues>
            -2.6087203621864319e-001 4.7242488712072372e-002
            -5.9804916381835938e-001 9.6291714906692505e-001</leafValues></_>
        <_>
          <internalNodes>
            1 2 355 1.0328090749680996e-002 0 -1 40
            7.4402377009391785e-002 -2 -3 247 9.2966593801975250e-003</internalNodes>
          <leafValues>
            -8.8805639743804932e-001 1. 3.7420931458473206e-001
            -1.8962066620588303e-002</leafValues></_>
        <_>
          <internalNodes>
            1 2 100 6.6178187727928162e-002 0 -1 293
            9.5495041459798813e-003 -2 -3 17 2.8935974463820457e-002</internalNodes>
          <leafValues>
            -3.3879378437995911e-001 -2.4966259952634573e-003
            -8.2036338746547699e-002 4.0882536768913269e-001</leafValues></_>
        <_>
          <internalNodes>
            1 2 3 1.4036074280738831e-001 0 -1 82
            8.7061002850532532e-002 -2 -3 31 3.6400977522134781e-002</internalNodes>
          <leafValues>
            7.4961120262742043e-003 -4.5787575840950012e-001 -1.
            9.9687117338180542e-001</leafValues></_>
        <_>
          <internalNodes>
            1 2 49 1.0144918225705624e-002 0 -1 136
            2.0850330591201782e-002 -2 -3 316 3.7326153367757797e-002</internalNodes>
          <leafValues>
            -3.8777741789817810e-001 3.7570947408676147e-001
            3.2448742538690567e-002 -2.4720443785190582e-001</leafValues></_>
        <_>
          <internalNodes>
            1 2 127 6.6476352512836456e-002 0 -1 227
            2.8989322483539581e-002 -2 -3 148 1.7215378582477570e-002</internalNodes>
          <leafValues>
            1.7227083444595337e-002 -2.7864977717399597e-001
            -4.3903508782386780e-001 3.3637484908103943e-001</leafValues></_>
        <_>
          <internalNodes>
            1 2 233 2.0737256854772568e-002 0 -1 137
            2.8086742386221886e-002 -2 -3 358 1.4340216293931007e-002</internalNodes>
          <leafValues>
            -2.5545403361320496e-001 4.2555458843708038e-002
            2.2487537562847137e-001 -4.7245535999536514e-002</leafValues></_>
        <_>
          <internalNodes>
            1 2 217 7.7273391187191010e-002 0 -1 255
            1.4490473084151745e-002 -2 -3 229 8.8555797934532166e-002</internalNodes>
          <leafValues>
            1.6592060029506683e-001 -4.4452372938394547e-002
            -7.8748172521591187e-001 7.9707247018814087e-001</leafValues></_>
        <_>
          <internalNodes>
            1 2 3 5.0922939553856850e-003 0 -1 241
            3.6325223743915558e-002 -2 -3 356 1.0234018787741661e-002</internalNodes>
          <leafValues>
            -4.5617565512657166e-001 2.9605323076248169e-001
            2.2483909130096436e-001 -1.9566113129258156e-002</leafValues></_>
        <_>
          <internalNodes>
            1 2 138 2.5225412100553513e-002 0 -1 215
            5.0241488963365555e-002 -2 -3 38 1.1363754048943520e-002</internalNodes>
          <leafValues>
            1.4022515714168549e-001 -4.1851320862770081e-001
            7.8559726476669312e-002 -1.8885627388954163e-001</leafValues></_>
        <_>
          <internalNodes>
            1 2 79 5.4111927747726440e-002 0 -1 32
            4.1765477508306503e-003 -2 -3 70 2.8516635298728943e-002</internalNodes>
          <leafValues>
            -4.2148715257644653e-001 2.8575388714671135e-002
            -6.9605576992034912e-001 1.5094789862632751e-001</leafValues></_>
        <_>
          <internalNodes>
            1 2 2 9.2288583517074585e-002 0 -1 309
            1.0949458181858063e-001 -2 -3 322 8.8412091135978699e-003</internalNodes>
          <leafValues>
            -1.9860150292515755e-002 8.2372319698333740e-001
            -8.0045115947723389e-001 9.8255574703216553e-001</leafValues></_>
        <_>
          <internalNodes>
            1 2 355 2.2160803899168968e-002 0 -1 309
            2.7347272261977196e-002 -2 -3 262 4.0333658456802368e-002</internalNodes>
          <leafValues>
            1.2038300931453705e-001 -3.8060900568962097e-001
            -3.0404284596443176e-002 2.3502877354621887e-001</leafValues></_>
        <_>
          <internalNodes>
            1 2 247 2.1550446748733521e-002 0 -1 154
            2.6633035391569138e-002 -2 -3 100 2.5141399353742599e-002</internalNodes>
          <leafValues>
            3.5841706395149231e-001 -3.0412340164184570e-001
            -3.0382522940635681e-001 1.0734625160694122e-002</leafValues></_>
        <_>
          <internalNodes>
            1 2 83 7.5303539633750916e-002 0 -1 110
            5.2103254944086075e-002 -2 -3 255 2.2662229835987091e-002</internalNodes>
          <leafValues>
            -1.2310829944908619e-002 3.0912357568740845e-001
            -8.9930742979049683e-001 -5.9740688651800156e-002</leafValues></_>
        <_>
          <internalNodes>
            1 2 1 2.6428550481796265e-002 0 -1 301
            9.7609639167785645e-002 -2 -3 113 5.2194088697433472e-002</internalNodes>
          <leafValues>
            5.5712103843688965e-002 -5.6572180986404419e-001
            -2.5128409266471863e-001 6.1473733186721802e-001</leafValues></_>
        <_>
          <internalNodes>
            1 2 275 4.7570228576660156e-002 0 -1 33
            8.7738791480660439e-003 -2 -3 103 5.7802088558673859e-002</internalNodes>
          <leafValues>
            -2.0944051444530487e-001 4.4601004570722580e-002
            -5.3266113996505737e-001 4.2658242583274841e-001</leafValues></_>
        <_>
          <internalNodes>
            1 2 44 5.1975641399621964e-003 0 -1 251
            3.8469333201646805e-002 -2 -3 74 5.0353899598121643e-002</internalNodes>
          <leafValues>
            -8.1059306859970093e-001 7.6957032084465027e-002
            2.2793561220169067e-002 -4.0169763565063477e-001</leafValues></_>
        <_>
          <internalNodes>
            1 2 272 1.2138973921537399e-002 0 -1 278
            7.7642843127250671e-002 -2 -3 323 6.6737920045852661e-002</internalNodes>
          <leafValues>
            -5.6208640336990356e-001 8.7834030389785767e-001
            2.4779658764600754e-002 -5.8694064617156982e-001</leafValues></_>
        <_>
          <internalNodes>
            1 2 301 5.1981814205646515e-002 0 -1 300
            1.3569800183176994e-002 -2 -3 109 2.9857594519853592e-002</internalNodes>
          <leafValues>
            -6.6038936376571655e-001 -3.4342549741268158e-002
            -1.2155671417713165e-001 3.0494996905326843e-001</leafValues></_>
        <_>
          <internalNodes>
            1 2 253 8.4974570199847221e-003 0 -1 41
            1.2275151908397675e-002 -2 -3 188 8.9331492781639099e-003</internalNodes>
          <leafValues>
            -2.2875599563121796e-001 4.0272420644760132e-001
            -4.0323764085769653e-001 -1.0135574266314507e-002</leafValues></_>
        <_>
          <internalNodes>
            1 2 77 3.3032307401299477e-003 0 -1 236
            4.5808576047420502e-002 -2 -3 37 3.8166721351444721e-003</internalNodes>
          <leafValues>
            3.4153899550437927e-001 -5.3785026073455811e-001
            -3.3686560392379761e-001 -3.0822830740362406e-004</leafValues></_>
        <_>
          <internalNodes>
            1 2 104 1.0516264010220766e-003 0 -1 268
            1.8019655719399452e-002 -2 -3 345 7.5843676924705505e-002</internalNodes>
          <leafValues>
            -7.3184084892272949e-001 -6.4454495906829834e-002
            -3.4973737783730030e-003 4.6484449505805969e-001</leafValues></_>
        <_>
          <internalNodes>
            1 2 162 5.3390068933367729e-003 0 -1 165
            8.5950372740626335e-003 -2 -3 214 6.3738003373146057e-002</internalNodes>
          <leafValues>
            6.7430996894836426e-001 -6.0796308517456055e-001
            1.1780807981267571e-003 5.4591429233551025e-001</leafValues></_>
        <_>
          <internalNodes>
            1 2 354 8.5666291415691376e-003 0 -1 3
            5.0511322915554047e-002 -2 -3 217 2.3212265223264694e-002</internalNodes>
          <leafValues>
            -8.2176393270492554e-001 7.5530129671096802e-001
            -6.4324535429477692e-002 8.7759360671043396e-002</leafValues></_>
        <_>
          <internalNodes>
            1 2 152 2.8974749147891998e-003 0 -1 272
            4.1754428297281265e-002 -2 -3 110 2.5737464427947998e-002</internalNodes>
          <leafValues>
            7.1373748779296875e-001 -6.8003249168395996e-001
